beta_ldpred2_cc beta_lassosum_cc
6.17218897226388e-05 0
-2.7898433397714e-06 0
9.44482811809151e-05 0
-5.86476473925466e-05 0
-2.49447480080973e-05 0
0.000255203573211343 0.000518878154275424
-0.000136356479059939 0
-6.84234244185101e-06 0
-0.000211211158862177 -0.00103931344983478
0.000227557756164017 0.000480429927419347
4.57961606415956e-05 0
-9.47888267422128e-05 0
-0.000111091866941002 0
-4.81164542981442e-05 0
-6.153102361195e-05 0
-1.89981556440345e-05 0
-5.28799838611548e-05 0
-4.65224237033914e-05 0
-3.44285287935904e-05 0
-1.49926426082949e-05 0
-5.04129521672586e-05 0
9.02660847434029e-05 0
-0.000117588725627613 0
-1.98212814677127e-05 0
-5.50474117615986e-05 0
-3.79312840206301e-05 0
-5.20901467209473e-05 0
4.33579014146578e-06 0
8.20345323706157e-06 0
9.88430270323341e-06 0
4.7609389350692e-05 0
-0.000686178582654746 -0.00320853644085077
-5.36544682507721e-05 0
-1.13576233983892e-05 0
-0.000150057458686358 0
-0.000180745246095766 -0.000469562925724107
-0.000128660339423294 0
1.03757564406107e-05 0
-0.000699129012591273 -0.00210165638189182
0.000406009772987195 0.00149604471145558
-0.000697675882235458 -0.00213058193244225
9.13545618128974e-05 0
0.000209052054555614 9.67140506790555e-05
-7.66276704756349e-06 0
0.000450331759654391 0.00165659893868217
-0.000209734390386748 -0.00118519001946942
0.000489002349035708 0.00174325668064452
-0.000201017636435355 -0.000759216082097968
0.000176574112025927 0
4.91763102674229e-07 0
-2.25467435945873e-05 0
2.45697348000993e-05 0
5.29043436467991e-06 0
-1.00886424350915e-05 0
9.48308055633506e-05 0
-5.71454635442397e-05 0
3.79710479028499e-05 0
3.8957053240364e-05 0
4.23393287450684e-05 0
3.66257270953512e-05 0
5.64328887888268e-05 0
6.13946236654523e-05 0
-4.1125976064946e-05 0
5.89097314054891e-05 0
6.56329981485853e-05 0
-1.28261963956432e-06 0
-5.69895672170353e-05 0
-9.67250428778369e-05 0
-1.20505352651909e-05 0
4.93396623778465e-05 0
-8.62517252119206e-05 0
-3.62579548232913e-05 0
-9.23704404323725e-05 0
-0.000506617024955443 -0.00283021518676132
3.7451688762164e-05 0
1.2526840260798e-05 0
-3.56773981935631e-06 0
-0.000133126322286786 0
-0.0001373514984132 0
-0.00015820840844506 0
-0.00014358517654083 0
-0.000136423207240965 0
-0.000655174432282389 -0.0023413111820827
-0.000517271067405533 -0.00222337417393256
-0.000281148066451697 0
6.97180087336148e-05 0
8.6449948895153e-05 0
-0.000260675517156015 0
0.000230347310056516 0.0006704416078658
9.67022200685703e-06 0
-5.36580488261043e-05 0
-0.000114074092651529 0
0.000422580996870664 0.00225616415475024
-0.000102782163787877 0
-0.000111996936558966 0
-3.68431659036343e-05 0
6.88804225175874e-05 0
-0.000119737841442434 0
-9.09287923252362e-07 0
-0.000224863052860979 0
-8.87863050158472e-05 0
-7.37885710942097e-05 0
-7.46433807689435e-05 0
-7.47168374789941e-05 0
-9.44957410670505e-05 0
9.061868919973e-05 0
-1.22351642308222e-05 0
9.79849533494285e-05 0
8.6867504212094e-05 0
0.000151166642319295 0.000643385232641766
5.71138846982259e-05 0
-1.16827116104731e-05 0
0.000151649882968105 0.000889967687359298
-0.000325828769567357 -0.00140901379340327
2.83946466789327e-05 0
-0.000159316598621037 0
-0.000147519552246731 0
-0.00025321044920752 -0.000923768107741992
-0.010427458862635 -0.0139740810122494
-0.00487681738340177 -0.00923116650777515
3.56450491203045e-05 0
0.00572884675564992 0.00856327372394377
0.000167847559457272 0
0.00196545294909225 0.00487050490522046
6.2181869331108e-05 0
-0.000283202987121043 -0.00145602392951958
0.00762115221667952 0.00924011281286648
0.000887500811254514 0.00261199260061471
5.38173083628337e-06 0
0.000795044756244502 0.00229586875922133
1.12451083707587e-05 0
0.0054109311494089 0.00847520493270928
0.00809132715093183 0.009443973993412
0.000747161651282366 0.00217514406185361
0.000889459040421221 0.00307676059818785
0.000120533543728408 0
-0.0126337308280478 -0.0166281630309543
-0.00157576697725667 -0.00703059296324649
-1.24555750277234e-05 0
-2.68996740103545e-06 0
-3.3304245706234e-05 0
-1.28131176261296e-05 0
-2.54301388261036e-05 0
-1.31308384062321e-05 0
-6.13175070710434e-06 0
-0.000148987292327197 -0.000208097859463123
-0.000101171618516508 0
-3.07758156783305e-05 0
-4.21846370280415e-05 0
-4.38790929075653e-05 0
-0.000146613900444707 -0.000226246241490049
2.21500797833417e-05 0
-3.64737949243731e-05 0
3.74663641134627e-05 0
-9.92704984979328e-05 0
-0.00010049173326764 0
-0.000150719839182846 -0.00015083988834205
-4.08193084095949e-05 0
5.70940270069368e-05 0
-0.000139374524440555 -7.11641156552518e-05
-0.000138297350342688 -0.000138188257394548
-0.000144552902233991 -9.53632239830644e-06
-1.36619995628798e-05 0
-5.44534431082947e-05 0
-0.000135892462644842 0
0.000133415483910494 0
4.76230568869327e-06 0
-8.80455318715049e-06 0
2.68801451191951e-05 0
9.05911372820402e-05 0
-2.60823706895018e-05 0
5.41857822226008e-05 0
7.08928746252607e-05 0
-9.39459091096799e-06 0
6.55702538223921e-05 0
-7.55491189866226e-05 0
-0.00011039945573845 0
-8.95821341014867e-05 0
-4.88997683161662e-05 0
-0.000114832639016307 0
0.000228541472833248 0.000813917684238288
0.00040441743936931 0.00172879401604147
-0.000368000039921033 -0.00186917521644969
0.000252278598774073 0.000364753668694313
7.95570003336504e-05 0
0.000296512094291623 0.000706002089796998
0.000309423507077648 0.000817706488125114
-0.000132213417930573 0
0.000500691966625833 0.00226316044138522
0.000108550272382363 0
0.000115386146765484 0
3.25776169760667e-05 0
0.000115342671240281 0
0.000242020324238905 0.000195186708893604
-0.000321037511244226 -0.00123641210266109
0.000271460713956293 0.000402380240156036
0.000227743088329517 0
0.000215614374589338 0
-0.000394171966590399 -0.00100103947049241
-0.000330474304878866 -0.00109280017571245
-0.00035906131488619 -0.00101092454216091
0.000162655076503223 8.47658322930849e-05
-3.8219493841663e-05 0
0.000160043639105138 0.000164774340134299
-0.000409479813749263 -0.00158283207109054
0.000157312161512193 0
6.2096552968875e-05 0
0.000262613168704233 0
-0.000362793402456415 -0.00172944967912908
7.27500694053368e-05 0
-4.59452881794996e-05 0
6.21089099235561e-05 0
0.000112155966628401 0
0.000507302928239597 0.00232785555186252
0.000149148053670827 4.59011064042562e-05
6.8796209774765e-05 0
-0.000263648958716221 -0.000669524875147414
4.14830294488792e-05 0
7.85796320204997e-05 0
-0.000314957826658634 -0.00159299139174845
0.000234776181031743 0
0.000151591519236823 0
8.54159811153404e-05 0
0.000245440848440924 0
0.000270244020227987 0
-0.000306936908092294 -0.00157221113542794
0.000114249121337596 0
8.40376412616429e-05 0
0.000294673130264778 0
9.38188881272794e-05 0
0.000351487041556321 0.00201076187570203
0.000242030002032858 0
-0.000600175242697241 -0.00240674444421106
-0.000841857717779127 -0.00349079390600426
-3.02786507081314e-05 0
-0.000909522117670216 -0.00315136937118224
-0.000106111842530659 0
-0.00113856635850729 -0.00474400616287993
0.00172245847182771 0.00583443848020081
-0.000948735784974007 -0.00314712209232936
0.000524630693589981 0.00113897634342447
-0.000757865750903033 -0.00236676631663903
0.000931307189207743 0.00345341576485879
-0.000109732769583237 -6.83838031532587e-05
-0.00132632576353376 -0.00485511116174371
-4.37846631257516e-05 0
-0.000117425174315837 -8.93204551328242e-05
0.000732014958414435 0.00239931839470512
-0.000820524146482972 -0.00350369938117614
-0.000888332823076334 -0.00436555462326241
-0.000100022928957694 0
-0.00228708407425727 -0.00693434865639647
0.000510166084017777 0.00196616892939932
-0.000205019896336037 0
0.00012009412742582 0
-7.2511118388653e-05 0
0.000249892572045401 0.00108310013328405
0.000245842900484311 0.000700693180062865
0.000262747947895793 0.000926691442652373
-0.000225544605216524 -0.00124511766938571
-5.94104492343554e-05 0
5.4705066378892e-05 0
1.63163270609385e-05 0
5.12573177852989e-05 0
6.02096184614642e-05 0
1.32509609565776e-05 0
1.03570029026835e-05 0
-1.49501940008866e-06 0
-5.98444227550821e-06 0
6.54000111961444e-06 0
1.50475835904007e-05 0
-0.000281549094809999 0
-8.30600200138008e-05 0
-0.000115839421365131 0
-2.18507608356039e-05 0
-0.000151680803712385 0
-4.449717840428e-05 0
-4.26241259464249e-05 0
-5.61645891229142e-05 0
-2.37074269503746e-05 0
3.06906750570022e-05 0
-3.4462165358655e-05 0
2.15595171221293e-05 0
0.000308590824125584 0.00111179323322728
0.000282296544625993 0.00106260342478974
0.000502959738081941 0.00182350326613335
0.00025263469404998 0.000658614542541176
0.000250170914449921 0
-0.000869060286500303 -0.00253794021684673
-0.001483692195724 -0.00388767769528994
-0.00126117787028401 -0.00322267365100019
-0.00113905064880131 -0.00366915141887945
0.000583516230715741 0.00344838545815306
0.000213815767058537 0.00283607685176482
-0.000865527571501665 -0.00315718964845376
0.000183667014011485 0.00217862792303011
-0.00115473506847862 -0.00429961723831907
0.000976409163699951 0.00432377265712588
-0.00128095755621408 -0.00407385495020219
-0.00107246508788371 -0.00381730436379255
0.000167901899663256 0.00193461634333841
-0.00102570229979326 -0.00357330747770911
-0.00113072834012143 -0.00329769354140205
0.00017877643017282 0.00207203185526249
-0.000558310055307753 -0.00208538990265537
0.00123241231042184 0.006671133894491
0.000749353849492125 0.00239994772386249
0.000329209269276618 0.00109251314139253
-0.000169225170744627 0
-0.000497481919563741 -0.00187075827242711
-0.000181665512034354 0
0.000778235914144736 0.00197384004797032
0.000276888050970021 0
0.000765560808037456 0.00244043650984531
0.000790392267466904 0.00231098840868908
-0.0003647602331144 -0.000557526955966749
0.000228570117893215 0.000393045581166585
-0.000175461085734323 0
0.000219752008650113 0.000338058190027607
0.000272723020040779 0.000280287456431826
0.000264542617810413 0.000397464205104063
0.000244277760775145 0.000592597028157593
-0.000197907495904632 0
0.00092262850028339 0.00217393394410604
0.000804685161236519 0.00215170716917146
0.00080727986251704 0.00242263721376592
0.000257930375054433 0.000460065068755777
0.000732074172320671 0.00241839725360035
-0.000157891173733186 0
0.000571865842251864 0.001985511758273
-0.000169330119700929 0
0.000198827213279022 0
0.000170454274481877 0
0.000673405049052096 0.00194155232985598
0.000616271757118584 0.00213776544465505
-0.000204968744545946 0
0.00019993524230103 0
0.000637620690664045 0.00271512572890225
0.000686877419959628 0.0027873241625105
0.000246480517745288 0
8.21349986075041e-05 0.00119495243304505
0.000253392525046715 0
0.00752631438877978 0.0109200385754863
0.00152250367042385 0.00360884092566496
0.000568439105354117 0.00121793164624303
0.00161157084471067 0.00388105059001052
0.00166547419033428 0.00389000518857533
0.00162308391512792 0.00408260819151036
0.00597137265573554 0.00696084811507448
4.45731352220603e-05 0
0.000647455167641681 0.0030030473792694
0.000692299645516804 0.00355189936546077
0.000895344271586746 0.00157073300548506
0.000341834984741198 0.00147699470625444
0.00246079985349281 0.0071661921471377
0.000559898160511658 0.00290362856913967
0.000922209153215858 0.00310229141244584
0.00129027434860858 0.00409570950986748
0.00011966899360941 0
0.000158573114618316 0
3.4169216828979e-06 0
3.27215793521592e-06 0
0.000166493402603966 0.000501710042403922
-0.000229062825481722 -5.77532393758254e-06
-2.28005642983203e-05 0
8.00521382391931e-05 0
0.000198528814156769 0
5.27566732957852e-06 0
0.000202362503888864 0.000432309449227769
-0.000795923726462551 -0.00401845308521299
4.61573065043728e-05 0
-8.77052306975244e-06 0
2.62853863738438e-05 0
6.77816252043423e-05 0
-5.45764284522409e-05 0
-0.000170852564896323 -0.000634174876397873
-9.97608195806654e-05 0
-3.9018383253316e-05 0
-0.0001620576180124 -0.000515796513240503
-0.000147029531339055 0
-0.000158879467588624 0
7.73396531416261e-05 0
0.000223561265384684 0.00111432046491681
-0.000395684471276746 -0.00218259856029087
1.60610952931578e-05 0
0.000129263320694543 0
2.10724131253899e-05 0
-1.98309842357089e-05 0
-0.000115557706802758 0
8.27252345073935e-05 0
8.96764925335904e-05 0
1.46859196206781e-05 0
2.87319296577525e-05 0
4.09634506364757e-05 0
-0.000103799488014693 0
2.71688843685501e-05 0
-7.95979615457295e-05 0
4.7483819083504e-05 0
5.62561609609377e-05 0
0.000105295901442869 0
-6.57955128317762e-05 0
0.000520848561709843 0.002310979154929
0.000160696362014893 0.000588899964614894
0.000514684668583961 0.00262027830408903
0.000199667541199492 0.000824072487482645
0.000170098231247077 0
9.88071445808935e-05 0
8.89400462215288e-05 0
8.37855478554855e-05 0
4.10466645310921e-05 0
-2.32753877354212e-05 0
8.10037902096534e-05 0
-3.75462886133542e-05 0
6.86498603177064e-05 0
-3.96021168108999e-05 0
0.000174776072737615 0.000132688002318261
-1.38646040037271e-05 0
0.000273763526927216 0.00127595230113972
-1.05634883566568e-05 0
0.000203036464248962 0.000574726535700262
0.000179975480403506 0.000257875074272098
0.000164507008653844 0
7.02126073123206e-05 0
0.000114457481184061 0
0.000106615180860658 0
0.00033449800811365 0.000597372566758092
0.000323534409107093 0.000579782122673734
-0.000684047400562063 -0.00371756147320145
-9.48588762966531e-05 0
0.000407870590466005 0.00132360198548692
0.000367358040144947 0.00107397802016762
0.000210472788455183 0
-3.50729617646505e-05 0
-0.000263100263093763 -0.000754760378563586
-0.000252075999330951 -0.000467389301961715
-5.71500620062569e-05 0
0.000126910494635214 0
0.00023119458656724 0.00043284941216973
-1.98202908129111e-05 0
0.000693015051353381 0.00313888961443109
-6.42016056537995e-05 0
8.82257135874755e-06 0
1.12681681288092e-05 0
0.000466897243170793 0.00284425584197875
0.000539900910028819 0.0024904724943751
6.833583160034e-05 0
6.3100454005365e-05 0
2.40704978810464e-05 0
0.000369183207354306 0.00143360215406238
1.20378437558284e-05 0
-6.48867195479234e-05 0
-9.18950585933682e-05 0
-2.03226080199794e-06 0
3.5074710630147e-05 0
0.000200786348616923 0.000182373752593979
0.000240823904849377 0.00186002240025083
0.000329434764525618 0.000294401351410397
4.01615048876882e-05 0
0.000134644627826221 0
0.000113780367229934 0
-0.00057992929921368 -0.00394720015947871
0.000157711728381115 0
0.000366194441992216 0.000508771993383005
0.000174242201528448 8.88607742420956e-05
-2.58363857754712e-05 0
0.000151706695322143 0
0.000149136081279929 0
0.00014154820270008 0
0.000147815330686156 0
0.000287052225441409 0.000342686439719821
0.000125252470953829 0
-6.32689341309714e-05 0
0.000262403899032064 0.000425994833016099
0.00030693769365054 0.000484270091660075
0.000359102741442697 0.000969254019614237
0.000113807876622234 0
0.000290749975842839 0.000530428526427501
0.000429986275168586 0.00174146056828409
0.000636705103386993 0.00290967884956778
-9.71481643574978e-05 -0.00073108881955269
-0.000261762599110733 -0.00105454248326422
-0.00018182542976826 -0.000166876830142599
-0.000343397081525684 -0.00113643108417743
-0.000322492504646301 -0.00137341707376725
-0.000278744810544089 -0.000498646072276053
-0.00017340474374805 0
-0.000270826430381309 -0.000331332025061811
-0.000366444929909145 -0.00168494902621614
-0.000272324495111806 0
-0.000244107739012224 -0.000716986362418488
-0.000132342682620014 0
-0.000338421003525522 -0.00176693651742418
3.73959556790709e-05 0
1.03709363876189e-05 0
-5.38313082332414e-06 0
0.00020988671080198 0
8.24637842874365e-05 0
0.000201904962005215 0
0.000321267259757401 0.00050307417032964
0.00030498221060376 0.000489184446722549
0.000341384246503035 0.00050626909003251
0.000226670081068564 0
0.000229626893321298 0
0.000218844201905001 0
0.000192050773201453 0
1.70259719178485e-05 0
2.45211600419143e-05 0
2.42861182619171e-05 0
5.34333996390316e-05 0
6.08491738587889e-05 0
-2.49770311668901e-05 0
0.000183360590932761 0.000125263450559819
5.28005369988507e-05 0
1.08219057761593e-05 0
0.0002696027260021 0.000349341655407393
-5.13164093336778e-05 0
-1.64618910831771e-05 0
0.000105333019919125 0
4.99887376314818e-05 0
-7.5186735917803e-05 0
0.00012121358845287 0
-5.66692722634633e-05 0
-0.000315815124699336 -0.00169855167371232
-0.000149132081351778 0
-0.000158485775333566 -0.000270596337449415
-0.000379474893522435 -0.00120418470357592
-0.000397581348440011 -0.000536533043986857
-0.000416030091554756 -0.00127829537767998
-0.000462359678135792 -0.00130388207295478
5.73350586307282e-05 0
0.000168255929021563 0.000764778236872485
0.000275748416315087 0
0.000293303819131138 1.44827898885321e-05
0.000410822559577068 0.001184715873088
-0.000274416269268022 -0.000791945072324949
-2.3243099914602e-05 0
2.05024195947981e-05 0
-7.27236861704622e-05 0
-4.95507316472487e-05 0
-7.18983120249058e-05 0
7.80532453953106e-05 0
-0.000158815559395655 -0.00041184128289029
4.50495904332495e-05 0
-0.000162575129922277 -0.000535130448278181
-0.000148778142938757 -0.000412140010450158
2.22514948862251e-05 0
-4.24946950945513e-05 0
-0.000452202271092338 -0.00359837930521915
-0.000194925480697867 -0.000415301649098557
-0.000157069877002256 -0.000264090921739224
-0.00016820303126087 -0.000247585440259166
-0.000154262581511546 0
-0.000649581880984162 -0.00303529501955171
-0.000198616727831137 0
-0.000392039497985463 -0.00190888373660969
-0.000305166307453252 -0.00141953059723732
-0.000335671056118706 -0.00238432977033574
-0.000383239157879191 -0.00167032475109319
3.73351072878632e-05 0
-0.00139327586612079 -0.00458659688931065
-5.26119535707462e-05 0
-5.43944794845997e-05 0
-6.40651621434556e-05 0
6.94381923944838e-06 0
0.000216295297055131 0.000326468883998714
0.000283637421411417 0.00151526610892955
-2.48816024786103e-05 0
-5.42590079853665e-05 0
-5.98898180667765e-05 0
2.16120405987534e-05 0
0.000208531251770955 0.00129414330708631
0.00124155907452025 0.00510915279164185
-0.000291486247008674 -0.000671895709948555
0.00130590294081644 0.00468532878358652
-0.000256127409683937 -0.000184126767525961
-0.000321918242075932 -0.000782499628022261
-0.000182835286277098 0
-0.000386043670360003 -0.0017961758729352
-0.000227208520531964 -4.84196730661675e-05
-0.000237910008654326 -0.000185502469738494
1.21996232985091e-05 0
1.30067975015345e-05 0
-0.000197958340921296 0
3.1952453219452e-05 0
0.000146840872252869 0
2.24786783753967e-05 0
-5.69685440108821e-05 0
4.5903297774556e-05 0
2.84831870246594e-05 0
2.64605395943274e-05 0
9.17409863775716e-05 0
2.54346961858797e-05 0
7.46020544929214e-05 0
2.98654137886561e-05 0
1.14923917130732e-05 0
4.48310058045853e-05 0
8.08700246098966e-05 0
6.83480798292948e-05 0
4.86584755846391e-05 0
0.00037063296460384 0.00194087161556672
-0.000118314253784025 0
8.8185968583503e-05 0
0.000258722548429845 0.00114063105801431
-9.73006574392203e-05 -0.000235815456326829
2.39212762233607e-05 0
3.53909563001978e-05 0
0.000137110498581882 0.000181576258932686
-0.00037353102146723 -0.00194852404404764
0.000123751140824079 0
-0.000317131847382005 -0.00160736486987414
-0.000362340242171637 -0.00207746803982685
0.0016709453669525 0.00516139692350068
0.000309601866946461 0.000925762997123362
-0.000586734777241846 -0.00242201958065297
0.000225333007814011 0.00159865707309513
0.000224604304901063 0
5.00981769245469e-05 0
-0.000255723588329618 0
-0.00108591707664879 -0.00330947175302411
-0.000799491978817667 -0.00179066569109152
-0.0017145743809189 -0.00509788658762209
0.000141577903831072 0
0.00143605374705628 0.00559840508110467
-0.00040128412331131 -0.00315433614868337
-3.9397945348695e-05 0
-0.00100224733371702 -0.00248807888982919
-0.0118389813995322 -0.0151452902886727
-0.00763437794878504 -0.01062139449729
-0.00938691337888065 -0.0114547902277943
-0.00942268789087468 -0.0109989292556305
-0.00984400994251554 -0.0116233077187893
-0.0236285787769961 -0.0334459594687336
0.0189892679837224 0.0262677026743007
-0.00038731780134202 -0.00162846631804359
0.0159340903640665 0.0216174716782699
0.0196544453923067 0.026595530134939
-0.0172570835795367 -0.0211516032907549
-0.0325463038222101 -0.0467113351232741
-0.000254089029240287 -0.00195580209379561
-7.07562950142424e-05 0
-0.000105126751500644 0
0.00296630794969946 0.00472528896742992
0.00449370620194021 0.00552811813510918
0.0348187562694586 0.0480864236258983
0.03481919527387 0.0480267179111554
-0.00626181774183091 -0.010237154045817
-0.0146835702323646 -0.0186627465621749
-0.000154356772266781 0
-0.000264081682121639 -0.000479304688414011
-0.000118520814058062 0
-0.000287590332839081 -0.000627436693149522
9.21548467843607e-06 0
-0.000299936051131735 -0.00104761892747999
0.00322330541448035 0.00713804119184
-3.18299167695945e-05 0
1.04945688657749e-05 0
5.98175374336179e-06 0
-0.000160546534573968 0
1.83845906875082e-05 0
-2.05988867177397e-05 0
-0.000221047672698999 0
-0.000404935097835916 -0.00164246821289672
-9.70963101936312e-05 0
-0.000183316449031954 0
-0.000156980479812663 0
-0.000155016586415729 0
-0.000504066985535394 -0.0028073131425133
0.000246804448677686 0.00250198413631565
0.000104048356972992 0
-0.000914243927390823 -0.00141169657121929
-0.000220740196097457 0
-0.00130796930353486 -0.00263703388666891
-0.000182519063698855 0
-0.00129205408721452 -0.00317238421269311
-0.000195581880187914 0
-0.000209656185361315 0
0.00027122846869417 0
-0.000422641063586771 -0.00127904141064342
0.000285516710183976 7.30947808434658e-05
0.000281854039049925 6.43112962933546e-05
-0.000885999372772619 -0.00323675034593633
3.23393967659128e-06 0
-0.00025584169227513 -0.00213600909388991
-0.000490429857603576 -0.00288764953164873
6.82634776749024e-05 9.15605563929486e-05
8.9772893282588e-05 0.000524742474088015
-8.74675884507062e-05 0
-1.39961534780303e-05 0
7.46648589513287e-05 0
-2.09836203248478e-05 0
0.000147108780678298 7.0350507943511e-05
-5.75644991633166e-06 0
-3.1956314320662e-05 0
-5.87429220986717e-05 0
-8.02539307930755e-07 0
-0.000855350795816768 -0.00297277161916596
1.31120783965663e-05 0
0.000509020273085588 0.00101726081541754
-0.000128576373879648 0
0.000322662584414293 0.000419998180003231
0.00018125400358897 0
0.000613644729032874 0.00303264122954381
0.000518226216006583 0.00174008874926643
0.000217402434407153 0.000441463636213541
0.000241557455640477 0
-3.70281912313945e-06 0
4.47120398947101e-05 0
-0.000155176306854314 0
4.57086527772147e-05 0
0.000374025010797368 0.00217263981426602
0.00029604953958258 0.000536295300798011
0.000120842708634052 0.000278123844679771
7.36122436982845e-05 0
0.000259242015643461 0.000286025191590688
0.000254224159148991 0.000138116458833505
0.000135934152850442 0.000415946378524545
0.000283173635922766 0.000490261137315191
7.34462290512652e-05 0
0.000367355038896534 0.000651400410127451
5.39586482026386e-05 0
-0.000143606922017888 -0.000963092586834609
-1.47584677731289e-05 0
0.000236032214005885 0.000309040577784402
-0.00059746240994738 -0.00253478941431387
-0.000195386864498885 -0.00156378363682802
-0.000111015587102547 -4.20997951234364e-05
3.25493959792795e-05 0
-1.7374241650886e-05 0
-0.000187626906596102 0
3.40021270547873e-08 0
-6.30165245734661e-06 0
3.17516189737604e-05 0
3.41318288683748e-05 0
1.79564587216993e-06 0
5.33370742414191e-06 0
-0.000180297067586718 -0.000177030161350278
-3.80305466654052e-05 0
-1.27294140787224e-05 0
-3.4632952344042e-05 0
0.000181774086048441 0.000237239960462438
0.000116256044957615 8.21465011782072e-06
-5.14747609085665e-05 0
0.000169339372623087 0.000651892214632091
4.96744047562519e-05 0
1.36699868963171e-05 0
0.000417355782993988 0.00105576150198941
5.12379423811016e-05 0
0.0001641138759676 0.000141527661445771
3.91924641703618e-05 0
0.000772116756451496 0.00377322899980949
7.92678973360617e-05 0
7.38212402486872e-05 0
-2.60808281456059e-06 0
0.00032510404865502 0.000506705651833375
0.000484696144946883 0.00196315108276691
-5.11876607748871e-05 0
0.000306120465813686 0.000135115287390404
0.000101185773440508 0
0.000178258895790214 0
-0.000183234998920278 -3.09980010999931e-05
-0.000179407442634226 0
0.000169773524185617 0.000213495080530849
0.000142614584115064 9.96647514000304e-05
-7.8413392622523e-05 0
2.9198886578018e-06 0
-0.000271368890208 -0.00119277643969681
5.08743899922635e-05 0
0.000349262414840526 0.00217517390661072
0.000130038445895823 0
1.44371801266622e-06 0
0.000485785709159368 0.00234763241055202
-6.73866515265087e-05 0
0.000961846098332565 0.00361141473931375
0.000855141167196134 0.00334725756201581
0.000239154454718581 0
7.85842351359953e-05 0
-7.6263361533796e-05 0
8.82048211790298e-05 0
-1.29984327250148e-05 0
0.000225206262640626 0
-5.15220513838365e-05 0
-9.97534994975018e-05 0
-9.16029435475389e-05 0
-0.000135251212786588 0
-0.000145521558063635 -0.000191712676318188
8.71487959785511e-05 0
6.43396765231286e-05 0
6.82374740557284e-05 0
-0.000115610473938538 0
-3.11090261406553e-05 0
3.34149038570091e-05 0
-0.000166044219077453 -0.000706421343161797
4.98126720128194e-05 0
-0.000138388527710696 0
-9.1195591791183e-05 0
0.000206029804161957 0.00142140914303993
0.000329814319162287 0.00185318226066639
0.000187866837203588 0.000890960774486321
0.000106734307885608 0
-0.000307913720789077 -0.000196687648833695
0.000156363136643064 0.0002464885328694
2.47778662862473e-05 0
0.000173048428144241 0.000259393345889737
-0.00269291124678555 -0.00573346480476825
-0.00130139651435355 -0.00359637408915714
-3.95612320202794e-05 0
-0.00042433671143152 -3.61800359117324e-05
-0.00130242611707247 -0.00293054384021842
-0.000544532525281805 -0.000269034536350317
-0.00113561877297334 -0.00254896054395101
-0.000872493221937858 -0.000966309424478958
-0.000910683705624057 -0.00234590786572165
-0.00076052681670956 -0.00110720415906418
-1.87819231720671e-05 0
-0.000597611719124081 -0.00275424763708263
-0.000252521984076969 0
0.000111146871571256 0
-0.000177165950160837 0
-0.00092935381914322 -0.00353036836638903
-0.000433662457367006 -0.00151461671398814
0.000159825499197456 0.000590164742004485
-0.000462832526549789 -0.00354613164676286
-0.00070667321324068 -0.00295984731140307
0.00960327374201269 0.0132418088445812
-0.000372341711682018 -0.00164306672796277
0.00134761724652887 0.00649538258738377
-0.000531601289139425 -0.00206430382688374
-0.000597294185775892 -0.00358107780470856
0.000163194211838101 0.000822819866333214
-0.000102369417019254 0
-0.000128059304899759 0
-0.000325504310590676 -0.00117498351574508
-6.14285056371274e-05 0
2.30833696787406e-05 0
0.000664133574539703 0.00282631368403906
0.000283293293805466 0
-4.5680471430723e-05 0
-0.00109296064396994 -0.00344406303717422
0.000101509512684617 0
9.76490209888713e-05 0
0.000487416856963177 0
0.00142254367323689 0.0028552792917666
0.00152329838816646 0.00289967595938191
0.000107867542366919 0
0.00311633945514676 0.00550136482560245
0.000530019005490746 0.00444883984669998
-6.61963790496028e-05 0
0.00137658238565344 0.00275798857824882
7.7861036902465e-05 0
-0.0100826259409824 -0.0153047363952331
7.75569936446299e-05 0
8.60763931820274e-05 0
-0.000287390136990705 -0.000670819200638194
0.00227919083984508 0.00652582047784704
-0.00997628938459191 -0.0113252759169942
-0.00946865159049816 -0.0119616555337728
-0.0100955422360187 -0.0120043383264577
-0.0102166813879027 -0.0121088648048914
-0.00249017460959589 -0.00781156371684245
-0.01089791494578 -0.0124742124611222
-4.09659990740115e-05 0
-0.0013631591556155 -0.00273125308631819
-0.00125053314289171 -0.0028230015803907
0.000148559570816829 0
-0.000393861236039639 -0.000428690369032639
4.30365187891143e-05 0
-0.000195208680807934 0
-8.92056883021724e-05 0
-0.000132843016842652 -0.000338623611513709
-0.00199835371709014 -0.00460952291598493
-0.000192984610887392 -0.000667580004533472
8.67961200183112e-06 0
1.2954262139424e-05 0
2.59611041618849e-05 0
8.10302590473901e-05 0
-0.000129070153126925 0
-0.000115520376893689 0
-5.08851813672177e-05 0
-2.66326601702145e-05 0
-4.01434664039051e-05 0
-0.000179992836593988 -0.000610243096147176
3.82621517356872e-05 0
-6.68090882710151e-05 0
-0.000194424422208389 -0.000145768552313441
-0.000297875046407636 -0.0017602325485342
-4.56096482416577e-05 0
9.03214282509429e-05 0
-0.000119236850049142 0
-1.83534767029617e-05 0
-4.06396104772038e-05 0
-5.47852151452874e-05 0
-0.000109022213326997 0
-4.34191097649174e-05 0
0.000116782343474567 0
-0.000141750518227474 0
-0.000332680369039578 -0.00132598623955188
-9.13594237072275e-05 0
-0.00014190989026305 0
-0.000121005887242919 0
-0.00013623194637447 0
-0.00022491308570804 -3.66542273845709e-05
-0.000111205682126769 0
-8.27761110912013e-06 0
-0.000173360684474555 0
-7.33968022789179e-05 0
-0.000160134745700062 0
-0.000524269267992951 -0.00260743890647794
-4.54648705856515e-06 0
-0.000122451418955849 0
-4.13398209103876e-05 0
-2.81529085444912e-05 0
-2.11206302100133e-05 0
-9.77777238203403e-05 0
-3.30591630966016e-05 0
-5.32548925930726e-05 0
7.04877002015489e-06 0
3.45752148706991e-05 0
-2.28301790231448e-06 0
3.63776393200702e-05 0
0.000234852046258781 0.000690553260271328
4.40232974692909e-05 0
-8.73694807465873e-05 0
-2.39932561463582e-05 0
2.2294079543599e-06 0
6.23985777142034e-05 0
4.96787201931929e-05 0
-7.02255327909485e-05 0
1.68147124294414e-05 0
1.50362949985692e-05 0
7.17155249777828e-05 0
6.08890015320795e-06 0
1.19022458222351e-06 0
2.76599774989847e-05 0
1.49033935842514e-05 0
4.57401220719497e-06 0
-2.70632597465097e-05 0
2.90325770412206e-05 0
3.26821655031588e-05 0
3.41895499489458e-06 0
1.16477870468677e-05 0
9.74621764013482e-06 0
2.27219099737722e-05 0
-4.40843085345887e-05 0
6.06246175026312e-05 0
-1.96327058122387e-05 0
-3.1669332346971e-05 0
8.92498049312742e-06 0
5.84351210392434e-05 0
3.77340478195595e-05 0
-3.0931387704401e-05 0
2.43763245438199e-05 0
4.46671141624002e-05 0
-2.95479140993231e-05 0
3.15247304636556e-05 0
2.97693286779001e-05 0
-1.46519984085514e-06 0
-3.38789230509672e-05 0
2.26371321373699e-06 0
3.38116440160947e-06 0
7.23881441863856e-05 0
3.13103781738719e-06 0
1.15123500045144e-05 0
2.42112352641204e-05 0
-1.24353331161221e-05 0
3.60303650777734e-07 0
-1.47838665024915e-05 0
2.31667284477784e-05 0
-0.00037646168543555 -0.00151918450742725
1.94873357980236e-05 0
5.02771179643737e-05 0
0.000136311737342205 0
-0.000499587353314694 -0.00156725823674522
6.64616809275565e-05 0
-0.000459171154975925 -0.00157668847089649
7.40036629023044e-05 0
8.53201429919629e-05 0
8.58258485902691e-05 0
7.10949434540248e-05 0
1.98925441708899e-05 0
-0.00018274196491813 0
0.000156348000844974 0
-1.89970261790384e-05 0
6.23469617710534e-05 0
7.20941438766692e-05 0
6.90674834076371e-05 0
-7.45441484617156e-05 0
0.00020704900210768 0.00116107211859728
0.000164897379905425 0.000466337037552392
0.000252910406969425 0.000991718889417665
-9.78952408351526e-05 0
9.54885797102777e-05 0
5.11610957255147e-05 0
7.46532866885123e-05 0
3.74286840487882e-05 0
9.44025148573111e-05 0
-0.000176564010330983 -0.000447751425169903
0.000307379909702538 0.00117299435290872
-0.000140340435289248 0
-4.77156529333839e-05 0
-2.72416277684813e-05 0
-0.000321335811249814 -0.00123047435984542
-0.000471444210626433 -0.00229520945708499
-0.000253730333098075 -0.00105565564988225
8.40876337680552e-05 0
-2.04450381357119e-06 0
-0.000209891345297084 -0.000498811796019319
-0.000284473826431036 -0.00136644354073527
6.6459896339521e-05 0
-0.000254114347081671 -0.00117275348254068
-0.000132308848356662 0
-9.13237936982153e-05 0
0.000329646344537346 0.00104509569374995
0.000204781966938718 0
-9.28619099982196e-05 0
-0.000100955382035551 0
-0.000110061761146207 -0.00012462798972025
2.76789618975041e-05 0
-7.35847710549659e-05 0
-9.00178506364738e-05 0
-8.38112074548212e-05 0
-7.99637920877329e-05 0
-5.5177932591839e-05 0
-9.83301632973498e-05 0
5.81725781606252e-05 0
-2.19854735718138e-05 0
0.000295272348419396 0.00113527019254499
-4.61225962988535e-05 0
0.00017075312670345 0.000595346972956464
8.05104113121188e-05 0
-1.39379605134226e-05 0
8.83688054791162e-05 0
9.6221895441619e-05 0
0.000196713124053661 0.00109961092195784
0.000142545490388706 0
-4.9623727226084e-05 0
4.99414372074982e-06 0
2.12388673876362e-05 0
5.82782295686449e-05 0
5.62726637698002e-05 0
1.66548769396722e-05 0
8.30016421872615e-06 0
-0.000231705727138436 -0.00032045383305593
-0.000439591934209943 -0.00210113826097096
-6.00949430651852e-05 0
-0.000248982912133086 0
-0.000247181852343745 -0.000714768723457578
-0.000101398134523741 0
0.000376632983494165 0.00136865000790058
-4.79592433302761e-05 0
0.000439003422520403 0.00161608405257894
-0.000519494626117684 -0.00273545175900371
-0.000477291788213122 -0.00267127593190102
0.000449347090180975 0.00187941468360576
-4.45705138947075e-05 0
-0.0002214359082861 -0.000598492190460788
-0.000113947156710665 0
-0.000129852756762332 0
-0.000115800803212383 0
-0.000241880985792621 -0.00160243168145755
-3.6453711268943e-05 0
0.000148647539289749 0.000765835257267884
0.000149509515489926 0.00065813708734595
0.000185619648969819 0
-1.27918263200476e-05 0
0.000166112720584411 0
-4.34522269449752e-05 0
-4.31928807443138e-05 0
-0.000332017072779971 -0.00128245543827654
5.06645070018572e-05 0
-6.18437895508266e-05 0
-0.000183069063308022 0
-0.000193790143665662 -0.000392470084196481
-0.000180111332835396 0
0.000142597398155625 0.000357041869988185
9.61652884919121e-05 0
8.83940076337355e-05 0
0.000125014249456322 2.98447623074073e-05
0.00011985919392735 4.6883447573894e-05
0.000165518995906688 8.08584501482621e-05
9.8890195122028e-05 0
0.000108503725655934 0
0.000109579777980491 0
-0.000183819315184777 -0.000144819610305791
-4.94471317518189e-05 0
-0.000229316496121501 -0.000656816690069833
-0.00016409647568582 0
-0.00023209501064156 -0.0012018396631552
-0.000104737439053742 0
-8.29237344769935e-06 0
5.62826213718831e-05 0
2.04533962481799e-05 0
1.09036844344516e-05 0
2.58286098192443e-06 0
4.09844955829717e-05 0
6.26014101367668e-05 0
-2.83387404699521e-05 0
-0.000121182089450778 0
1.47325376646884e-05 0
-9.23106775190871e-05 0
4.09233878835564e-05 0
-0.000200264646839263 -0.000876581376122091
-0.00011939932075358 0
-3.106503422827e-06 0
-2.7137037426089e-07 0
-0.000453953538516874 -0.00178212156123706
-2.00092310487086e-05 0
0.000198087413783972 0
-0.000394885857104851 -0.00135251622995714
-6.2793682116798e-05 0
-9.32032398890353e-05 0
-2.370260111357e-05 0
-1.59763891788829e-05 0
-4.59568159387232e-05 0
-7.45875302780621e-07 0
3.09093023510524e-05 0
7.95961954459857e-05 0
-4.38851364020252e-06 0
0.000256152251579733 0.000890719150591044
0.000209255677391114 0.000289122988769228
5.96649140133521e-06 0
2.77839121203201e-05 0
4.30398388605213e-05 0
3.4700888629534e-05 0
3.39789857485466e-05 0
2.99492469050683e-05 0
8.35762755609243e-06 0
-1.74678150104634e-05 0
-3.70989701652973e-05 0
1.06406013932933e-05 0
-4.90910831595756e-06 0
-6.97487316793941e-05 0
1.16727808030528e-05 0
-6.10524626117253e-05 0
0.000274448386269449 0.000887810601224171
2.06039928482748e-05 0
-8.57741805192298e-05 0
-2.8285757761351e-05 0
6.80714319736932e-06 0
7.63410842884556e-05 0
-0.000142268002554435 0
7.34922011350589e-05 0
0.000186638414366734 9.98063694956093e-05
-6.1101978876398e-05 0
6.33090303223091e-05 0
0.000145760286153634 0
-3.32649117242428e-05 0
-6.77881394531868e-05 0
-7.1216134970623e-05 0
-0.000101664836625926 0
3.27951245125572e-05 0
3.88650724229531e-05 0
4.83976977332002e-05 0
0.000391635245381261 0.00124553838578582
0.000407343795597342 0.00268305469418496
-2.49774172110705e-06 0
0.000375941905660015 0.00132061794934995
0.000264059187011211 0
6.06867680910426e-05 0
0.000358718791645815 0.00154224483462503
0.000401026786443098 0.00175367933534385
0.000414035898882036 0.00130644481746513
5.81062802019819e-05 0
0.000463844582571973 0.00251971562743347
0.000387041828818966 0.00135389894650617
0.000334637232282239 0.00109914611005901
0.000254771887232165 0.00018072847628507
-4.10587202651324e-05 0
-2.08720210487171e-05 0
7.72324730741766e-05 0.000135235197564028
7.11318580750503e-05 0.000119467981129576
-1.94504759460789e-05 0
1.23119290685856e-05 0
-1.52246197818086e-05 0
-2.24301517309991e-06 0
3.84584277583921e-05 0
-5.97690989383763e-06 0
-2.27069462100651e-05 0
5.11689019275098e-05 0
8.33011041365509e-05 0
3.01062476640578e-05 0
-3.82780352356634e-06 0
0.000224057758649043 0.000532818543492315
-4.21153468500938e-06 0
-4.50952336770984e-05 0
0.000229777497265756 0.000790909833597139
3.98172094142596e-05 0
3.85530170648849e-07 0
3.56425793221276e-05 0
9.47367376989236e-05 0
2.46319863070961e-06 0
3.212739555358e-05 0
-1.70978892071979e-05 0
0.000121492684236603 0
0.000316457969013813 0.00117343717567761
-2.20907726368059e-05 0
3.86953128076486e-05 0
0.00010447289361656 0
0.000123941940743696 0
-8.60594186196697e-05 0
9.92600629446558e-05 0
8.91172170036133e-05 0
9.49233218721219e-05 0
0.000380671807162873 0.00180440756868309
0.00015578174160951 3.71069061776451e-05
0.000153058668942266 0.000292815518185237
0.000163621571041904 0.000600917064554672
0.000149327022933692 0.00024028608722062
-1.13788601190106e-05 0
0.000121369870418583 0
5.52942018154168e-05 0
0.000418778471941195 0.00187633070414309
-0.000519329867528735 -0.00227955726281327
0.000104385802864075 0
4.66700462322864e-05 0
0.000374859713194988 0.00143262956294959
0.000369568767462177 0.00154100629495123
0.000142618235337304 0
9.84579915359935e-05 0
0.000100961150418338 0
0.000102182786704663 0
-4.39182517365746e-05 0
0.000121295396824004 0
0.000171860179066238 1.76285320131279e-05
0.000113518140149654 0
0.000100077628836082 0
0.000122317259070649 0
0.00015351554251803 0
8.2120833000622e-05 0
-3.53945761622349e-05 0
0.000207300306410594 0.00050182951963896
-2.08384999252529e-05 0
0.000194306585626952 0
-2.24931247037666e-05 0
0.000178841084719404 0
0.000201094530463875 0
0.000203884558950587 0
0.000173504288523261 0
0.000192389154549571 0.00011250500860405
0.00020889970763186 0
0.000186368571505582 0
-5.40981792477854e-05 0
0.000168868692479869 0
2.37721239001704e-05 0
1.19087907915939e-05 0
-0.000351104320582726 -0.00140691935054581
-0.00039325697491309 -0.00163094592359452
0.000183914996528704 0.000598152786750276
-0.000134844011671046 0
-0.00035303243707794 -0.00125248763818157
0.00019641635258503 0.000739952695965571
-0.000301948733339213 -0.0013463498588077
1.41432573726839e-05 0
5.28754252779712e-05 0
-6.42976104502052e-05 0
7.31566273280195e-05 0
0.000193552626640779 0.000519111224668804
-9.44746796577843e-05 0
0.000170056008570969 0.000438101518937152
4.10378997414067e-05 0
3.91116093978263e-05 0
3.69848446518819e-05 0
0.000169022114940788 0.000486563594404055
0.000324782194541007 0.0016672521588045
1.77322789242501e-05 0
-5.40436233482436e-05 0
0.000191151891857415 0.000725633826424746
-4.48721229698378e-05 0
-1.73625275494674e-05 0
-0.000124641121142911 0
-1.85304209970151e-05 0
-2.51330765047203e-05 0
-8.36331859021024e-06 0
0.000160475410395811 0.000415956649438482
-6.23333363645815e-05 0
0.000136847117061445 0.000186454876834996
-0.000119140647467686 0
0.000275142291623217 0.00109994712498118
0.000148402162823885 7.55129039923835e-05
0.000119219057748688 0
0.000302775836626295 0.000955388854652891
0.000331474661182563 0.00104428028072489
0.000114623401211454 0
0.000117356960729537 0
-8.00494243832126e-05 0
7.87853129729646e-05 0
-0.000224057050542046 -0.000465958892063495
4.59849832148905e-05 0
0.000180632510629543 0
-2.03664056473039e-05 0
-7.85296323356726e-05 0
1.9381375727286e-05 0
-6.64379814802046e-05 0
-7.09666655553896e-05 0
1.04090013749849e-06 0
-6.0987042107073e-05 0
-0.000290291216476606 -0.00106807963124095
-5.5687372211927e-05 0
0.000223998947754976 0
9.77399083133827e-05 0
8.19902633618085e-05 0
2.84416108017883e-05 0
0.000267793005109633 0
-0.000241038656361489 -0.000404249598776319
-3.91955487191539e-05 0
-0.000254980988124726 -0.000335733189515758
1.33441801575083e-05 0
-0.000239866954122543 -0.000326650137969977
-3.66215529024601e-05 0
0.000735639688538891 0.0049556476315108
-0.000280416486749213 -0.000741887723413904
8.32278889220028e-05 0
5.20771087307783e-05 0
9.07522239467487e-05 0
-0.000634414505506477 -0.00261014820260237
6.61658383616428e-05 0
-0.000172821713960598 -0.00067397705647553
-0.000193684088454559 -0.000929301124840367
-0.000189850231620012 -0.000878271787369506
9.77494935671727e-05 1.73677049533091e-06
-9.80104451533659e-05 0
9.11554613358281e-05 0
-0.000145548313908768 0
-1.83044995366051e-05 0
-3.02688554463151e-05 0
-0.000203770576646763 -3.32878434042258e-05
-2.37962171598606e-05 0
-2.36128942476332e-05 0
-0.000138195719231539 0
-0.000164380780455544 -0.00024744041560768
-0.000269641041146136 -0.00171017021886661
0.000267571410514112 0.000462446070997812
-2.65674279824475e-05 0
7.3042908595407e-05 0
0.00012774738698902 0
7.35319405415179e-05 0
4.83257180529122e-05 0
6.41333272938436e-05 0
-5.95901209301787e-05 0
0.000115546349143861 0.000604454123800279
5.87806563030484e-05 0
8.35793398770585e-05 0
5.20155078335192e-05 0
5.7301853205581e-05 0
-5.00498623361266e-05 0
-3.51862726557093e-06 0
5.80633116888855e-05 0
-0.000255583609508936 -0.000205671750773112
-0.000178340751133914 -3.75653153256681e-06
8.32666692921103e-06 0
-0.000119349697192706 0
-5.19313753883307e-05 0
-0.000344429966839288 -0.00149169130993811
-5.37800635776903e-05 0
0.000628398215227117 0.00143178994935526
0.000554107115790538 0.00143969860630835
0.000203016436247201 0
-0.000372809794391079 -0.00209750755506348
-0.000119806555745656 0
0.000570377841842906 0.00133970486957775
-0.00035219113988868 -0.001767413018892
-0.000196664055277679 0
-0.00067795512335831 -0.00269363053154648
-0.000507786973402724 -0.00254286459504781
-0.000107738044630066 0
3.81119045608487e-05 0
0.000246600496370992 0
8.84300912403111e-05 0
9.78967706983145e-05 0.000448113967680142
-0.00035342249726179 -0.00194440666942775
0.001168279145233 0.0051283055242698
-6.98210875487779e-05 0
0.000886936643028792 0.00281264824512563
-0.000189281375304709 0
-0.0001899523936579 0
6.49746786984803e-05 0
-0.000167000676029883 0
0.000310889724120297 0.00106122905518621
0.000534592958069837 0.00206293134733161
0.000917747732697556 0.00271298735249315
-0.000186429880437752 0
0.000563733341452237 0.00202329687625802
7.16946876877225e-05 0
6.06267355088429e-05 0
-8.61250118695296e-05 0
0.000258973560787474 0.00104237848090358
0.000158272931763835 0
6.71636838001086e-06 0
-4.01989083607319e-05 0
0.000215472584498466 0.000263231327849369
7.29763160994675e-05 0
0.000308180518558439 0.000818785127776896
2.8128394622554e-05 0
1.89961467870339e-05 0
0.000340176660717581 0.00143267812574073
2.60070117897219e-05 0
-1.78328246599329e-06 0
6.49360512130619e-05 0
-0.000318566278237335 0
0.000155019564981848 0
0.00139983651376658 0.00424095422549171
0.00197129480877467 0.00607566482370102
-0.000544159797504415 -0.00239212168225374
0.000141755811819058 0
2.68210425535856e-05 0
0.000873935224963614 0.00372981191684679
2.79510382844845e-05 0
0.000134865355240203 0
0.00102066227146377 0.00337916412169679
2.06964523826229e-05 0
5.00844278492284e-05 0
-0.000413211761597711 -0.00116406584967159
7.46372739210094e-05 0
-0.000302997741534132 -0.000134466823317441
0.00102781381069286 0.0030167694121634
0.00241978951554737 0.0066421759784238
0.00216384163787159 0.00664977319972549
0.00112536979215222 0.00329800635706462
0.00113638440219119 0.00330783762274177
-0.000298105508870487 -0.00100148700326146
-0.000230526260655955 -0.000246737723800575
0.000137263825610799 0
7.14001490089378e-05 0
-0.000150293611934027 0
-0.000174421794832258 0
-0.000126880486203393 0
2.04497145990381e-05 0
-0.000125843662529636 0
-7.32422554066248e-05 0
-8.42967856505877e-05 0
0.000176959177170443 0.000562449561065433
-0.000104467368497445 0
5.71195294796903e-07 0
0.000110951460240468 0
3.85132877165783e-05 0
1.40404395836024e-05 0
-3.4051953856804e-05 0
-8.65183898923488e-05 0
-2.33595565455256e-05 0
-9.26454808178092e-05 0
-4.62796695208871e-05 0
-0.000343440344989637 -0.00215089980646801
-0.000146039824933723 0
-0.000153196198273548 -0.000335531227043999
-4.53940945875252e-05 0
0.000227346573470155 0.00158474250514101
3.33037626102913e-05 0
0.000134363707292147 0
2.5791227095444e-05 0
-5.8330583978169e-05 0
-9.03605514559676e-05 0
3.72538768858229e-05 0
-0.000102577104485823 0
3.30483426149361e-06 0
2.87333950410452e-06 0
-9.66902803389304e-05 0
5.89158733532556e-05 0
-0.000215807959085808 -0.000990097207469437
2.01873468465613e-05 0
-0.000219960565482489 -0.00101462726425349
-0.000131721696243756 0
-0.000249924910392531 -0.000233905873974748
9.70775481194919e-05 0
-0.000373981222003077 -0.00133886329170887
-0.000162811929253788 0
-0.00021818288046333 -0.000207338967513648
-0.000195556414815658 0
0.000183659936718703 0
-0.000156565340602493 0
-0.000116074973413 0
0.000147069066990221 0.000115048127776844
-0.000120792539801304 0
0.000161253189652377 0.000338080133407576
4.08923603339468e-05 0
0.000373713575527699 0.00109931033739743
-0.000176522336662302 0
0.000348982632943941 0.000779932174630206
8.49426515857955e-05 0
-0.00018229210774549 0
-0.000312342895638206 -0.000911055160197296
-0.000289499222963007 -0.000987561318829865
-0.000149765293125762 0
-0.000133101357895075 0
-0.000207085066297402 0
0.000108889073442526 0
0.000441195409107783 0.00199969840384048
-6.70454437721865e-05 0
-9.16825566885733e-05 0
-9.15749078658065e-05 0
-0.00051669855011718 -0.00236931068256871
-0.00048264321604903 -0.00260511539292074
-7.033021882467e-05 0
-0.000273129435819155 -0.000313403645128755
6.75210644877615e-05 0
3.27140231659365e-05 0
5.2295822702779e-05 0
-8.9149619444162e-05 0
0.000183934544260656 0
-0.000101182075325964 0
0.000190693443593754 0.000282075262296363
-0.00010823281772284 0
0.000187916787021973 0.000129639515653832
-6.97172348925278e-05 0
0.00010339735835579 0
-4.45353466609083e-05 0
0.000161314752912312 0
-0.000236958450216714 -0.00132796884136478
-7.48835717819928e-05 0
-1.98959819198095e-05 0
-0.000250764589319853 -0.00150710236576697
4.95976051376779e-05 0
0.000173740568230001 2.50326292927081e-05
0.000268246333826141 0.00154564144012137
-0.00120161325748385 -0.00491422943266724
-0.000204599648261495 -0.000628699271894381
-1.43200310632441e-05 0
-8.31281603035205e-05 0
-0.000372663224562169 -0.00315535368578194
-0.000128216353713363 0
-7.82603688888217e-05 0
-0.00021789192722031 -0.000480097879200297
1.68119720800496e-05 0
0.00019599680091162 0
0.000456022505240898 0.00135399400734671
7.58298799308926e-05 0
7.45856977998349e-05 0
4.31603456095099e-05 0
0.000387498199428927 0.00113012297519852
0.000175109352811022 0
-6.62980335066055e-05 0
0.000204415769631957 0
-0.000307797865456893 -0.000611547077916853
-6.09767148097371e-05 0
-0.000137198216235954 0
-5.6537031956616e-05 0
0.000282276331571541 0.000342884106676378
-0.000259682787533924 -0.00134068092913062
-8.57115697065939e-06 0
7.85509467117206e-05 0
0.000389359666398553 0.000720578983628964
0.000372674659672408 0.000534625195574658
6.33024814421976e-05 0
-0.000198812530399389 -0.000665299151847993
0.000215424577869616 0.000830657495205016
6.48949650046838e-05 0
0.000168819839031263 0
0.000139925678215218 0
0.000156689844101138 0
0.000271821530879613 0.000180663080023813
3.02856363339361e-05 0
0.000274917046625433 0.000366840388155298
-0.00373397453497649 -0.00952167860013694
0.000221490196323802 0.000439542142448165
-0.00141956941637403 -0.00532299637798029
-0.000139334234922218 0
0.000138899206027762 0
0.000147062802205368 0
0.000349394534024082 0
-0.00123616436898011 -0.00276352844448066
-0.000149173196138823 0
0.00080769656762437 0.00253747967042963
0.000738332612440301 0.00241995943090542
0.000581847432124211 0.0023238220804076
3.59729685154906e-05 0
-0.000168952369355232 0
-0.000145957242873059 0
-3.42704712788408e-05 0
0.000215061928789766 0.000779534430785021
-0.000287954443310115 -0.000134972012140644
-0.000539073734216308 -0.00177451193969339
-2.25693333826034e-06 0
0.00026972600335499 0
0.000576904911184316 0.00137832158755953
0.000920813319333555 0.00284183949340248
0.000553288432533353 0.00113188141946778
-6.32331564999917e-05 0
0.000147242450516801 3.26075851575462e-05
0.000151023776218685 6.95777970370324e-06
-8.03982393932278e-06 0
0.000133446736903801 0
1.59188532356172e-05 0
3.55050337908664e-05 0
-0.000111982772382926 0
-8.24597773223395e-05 0
-0.00012011186680564 0
0.000186603485694261 0
0.000157630108275588 0
0.000148872983709053 0
1.82075139928998e-05 0
4.75452644414429e-06 0
-5.4419304577733e-05 0
-1.04326058179005e-06 0
0.00014119161802156 0
-0.000125041472116894 0
3.1626556650287e-05 0
-5.08363874803688e-05 0
-8.49200947440925e-05 0
-7.960870506e-05 0
-3.08202088949709e-05 0
-0.000357243537665127 -0.00167404605119074
-0.00021329797929677 -0.000317593727595993
-0.000231456874894508 -0.000387277902876748
-0.000331390076551802 -0.00148318019948103
-9.35588542916144e-05 0
-9.12919842457067e-05 0
2.48757884310741e-05 0
3.40614960236523e-05 0
-4.840796146749e-05 0
-3.96910550573408e-05 0
-4.12818728255543e-05 0
-3.792211741558e-05 0
-4.05343142598556e-05 0
5.57040225013499e-05 0
-3.89396979041757e-05 0
-0.0003215843667498 -0.00101450413063087
-0.000243428843537014 -0.000762549711026989
-0.0002291205760831 -0.00121932734062758
4.00254886403717e-05 0
-0.0001262926394516 0
-0.000135331435795807 0
-0.00014245465771994 0
-0.000376626936392445 -0.00171819675716577
-0.00031008918334057 -0.00126559268232761
-0.000402337866504549 -0.00122643963411534
-0.000154835426099218 0
-2.51381783963965e-05 0
-2.88350950244259e-05 0
-4.07748321085484e-05 0
4.81048376475116e-05 0
6.9961521090743e-06 0
0.000277077416892195 0.000852177457546166
1.15673659536495e-05 0
0.000117947765413869 0
2.74155523408357e-05 0
-8.1903044938256e-06 0
8.89535256107955e-06 0
0.000180268366130963 0.000458310363498604
-6.93183232160687e-05 0
0.000160387655179341 0
-7.774001440782e-05 0
0.000216958019095268 0.000223063672016287
0.000215444365071375 0.000101783260581432
3.11575547369898e-05 0
0.00023625639841427 0.000197749472407721
0.000166225419724314 0
0.000109284773155416 0
0.000229593246010093 0.00091769918736907
4.39652108936661e-05 0
0.000115983707002295 0
0.000225311236273686 0.000126401945418976
0.000208669696157243 0.000858079784832347
5.95217149513649e-05 0
-0.000184358234077171 0
-0.000563045224436919 -0.00193399841205113
0.00022881649305639 0
5.78972609570734e-05 0
0.000234999353169501 0.00015219681203046
0.000206912345842172 0.000222518346809431
0.000304874489001715 0.00133020774058818
-2.36807963924076e-06 0
7.03665633345213e-06 0
-0.000543837446123159 -0.00179667209326633
-5.42319915695026e-06 0
3.31075424061064e-06 0
-2.69127454798009e-06 0
-8.33373469010092e-07 0
6.34146556291583e-05 0
-0.000237667310549948 -0.000318942902937592
-0.000255367745096927 -0.000261942191227137
0.000149064138783927 0
0.000207459444468087 0.000226414385094514
0.000326544517767402 0.00147047179577728
0.000392922263842586 0.00178001500561705
9.67880691353957e-05 0
0.00016293321722995 0
0.000107828472702763 0
-8.33202395754944e-05 0
0.000118292184773723 0
-9.91763035606085e-05 0
-0.000173953133594724 -0.000385319176781985
-0.000868104389801227 -0.00344063507787849
-0.000336230852827454 -0.00162578921408969
0.000223990624009733 0.000610730681623701
0.000119728915426653 0
-2.28852620210992e-05 0
3.72725699149913e-05 0
4.22682494240509e-06 0
-1.2260852859534e-05 0
1.19610453374646e-05 0
6.26684572344864e-05 0
0.000337404402201824 0.00136179061848165
-7.13247957580147e-05 0
8.6104166053414e-05 0
7.68149180294448e-05 0
0.000103390565174411 0
1.26564782580596e-05 0
5.12367597976233e-05 0
5.31104920871851e-05 0
-0.000400995400120663 -0.00077156799443623
-0.00022216103229401 -0.00100192943937638
-1.23014501496691e-05 0
0.000208751016026022 0.000264381940064862
8.26266007177097e-05 0
-1.83764947446856e-05 0
-5.44761431814828e-05 0
1.74707503726776e-05 0
5.07913880990337e-05 0
-3.08361312465439e-05 0
-0.000100244485242453 -5.78162823585723e-05
7.85774324018502e-06 0
0.0001012219319497 0.000461576371008091
-3.70989746046072e-05 0
-0.00161572901694521 -0.00426887599503858
-7.1374282727108e-05 0
0.000106547807588218 0
9.4145457843233e-05 0
-1.568108845644e-05 0
0.0001391699643681 0
0.000159874385557618 0
-0.000239180082628392 -0.000150088449791308
0.000113843333773198 0
2.4207970565692e-05 0
-0.000509887808602738 -0.00141195523147381
-0.000297538672284484 -0.000998818947191462
-0.000161803845620157 0
-0.00018259257141362 0
3.89289531911785e-05 0
-0.000296417089760976 -0.000751430643705672
-0.000426446695680134 -0.00201620680045746
-0.000340316020713217 -0.00160333115262725
-0.000245584198338907 -0.000670245339458195
4.89836077461156e-05 0
-0.000262415173342469 -0.000935646509508367
-0.000223017497969724 -0.0008223394282246
-0.00198196066643565 -0.00661731371937177
-0.000142191788282931 0
-0.000324884579392044 -0.00221928502323175
0.000953540657695808 0.00387773704172018
-0.000154620942846353 0
3.44551698630148e-05 0
0.000562049216334463 0.00204086010858594
0.000255461097944626 0.00126880173693416
9.54922478067387e-05 0
3.63032350118276e-05 0
0.000115774556472445 0
7.35481565418044e-05 0
9.25223883953233e-05 0
7.41996173203069e-05 0
0.000104675253322613 0
1.84091884435632e-05 0
-7.33482806788947e-05 0
-0.000113310941762367 0
2.32942524460382e-05 0
1.49621006597409e-05 0
-8.0293653054816e-05 0
-0.000187161701810454 -0.000763483951250293
7.16164898774447e-05 0
4.34186318640698e-05 0
3.15179983412429e-05 0
-5.87905003340538e-05 0
0.000453929419980364 0.0028050174897259
4.79059709504872e-05 0
-3.74959186145909e-05 0
-6.77148980367975e-05 0
9.38958289233097e-05 0
0.000393676456582059 0.00127468077753738
-0.000181393452624955 -0.000526837468255583
0.000407515429211211 0.00111364480285597
0.00016514911701245 0.000655340686623175
-0.000216430917444817 -0.000756896247877084
-9.50802290321643e-05 0
6.64627521747614e-05 0
-6.30239488124331e-05 0
-0.000104186734582665 0
-0.000169979352744214 0
-0.000145315926868474 0
0.000429434450718552 0.00139588287027324
3.30973315741139e-05 0
0.000213993175459183 0.000673391636107172
0.000134248931797305 0
0.000109487960245348 0
1.91914881494389e-05 0
0.000184258792756721 0.000134160016264984
0.000180708191064031 0.000204038033752637
0.000112888490342756 0
0.000342698130655726 0.000740719876916353
0.000338418608660303 0.00140814641774009
-0.00012404856579813 0
-4.75411820769335e-05 0
4.70579092537491e-05 0
0.000175146154883911 0
0.000504921736721583 0.00170729446337319
7.38599260118715e-05 0
0.000305478849745227 0.000564507294226358
-0.000100724105488694 0
0.000191082583267624 0
-7.21051427259943e-05 0
7.12828361065404e-05 0
7.56367209827917e-05 0
7.36325921061421e-05 0
0.000199488577631693 0
0.000147169652890196 9.44903505333505e-05
0.000120818993517578 0
-0.000122336712646742 -0.000586302231488458
-3.13075186148743e-05 0
5.84479896082415e-05 0
0.000336742430377534 8.91556037538509e-05
0.000329158442231739 0.000279272147984395
-8.51946582245747e-05 0
0.000166779939952612 0
6.14670642316625e-05 0
6.00910309251015e-05 0
7.8934330878487e-05 0
0.000125391588806108 0
0.000143741521112985 0
0.000129068758022748 0
-0.000102415016645407 0
-0.000130753965662806 -0.000168748898957597
0.00033532364807603 0.00122785959919414
7.2269212892792e-05 0
0.000224997744204025 0.000671113495336616
0.000215169172957506 0.000577600246691244
9.69167699870681e-07 0
8.24933006085163e-05 0
6.23174370803371e-05 0
6.87773855464793e-05 0
-1.45694050268635e-05 0
0.000247299270375411 0.000907700767186927
0.000230591409106694 0.000334798800642244
-7.14811413765729e-05 0
-0.000161856846044729 -9.75420905565595e-05
-0.000156301134904866 0
-8.28755596350119e-05 0
5.33480086317779e-05 0
6.83447787293882e-05 0
7.39518002025486e-05 0
-0.000138254464390092 -0.000260240101129803
5.38919875482732e-05 0
-0.000153865849374424 -0.000278886108715526
9.13645075794506e-05 0
-5.78762033300889e-05 0
-0.000120477985861748 -0.000192589837077337
9.80205380924975e-05 0
0.000313604958789827 0.00239683366641368
5.36940902060943e-05 0
-0.000589603986847222 -0.00136300247246484
2.81511033931088e-05 0
-5.08653282739717e-05 0
-0.000234466666595033 -0.000160942033596809
-0.000521075416043469 -0.00164673411111473
3.13860126379368e-05 0
-0.000610519638306636 -0.00212550031001979
-0.000318250124728129 -0.000715462330433536
-0.00015711494921053 0
-0.00025624581531726 -0.000494547212273152
-0.00015694971096584 -0.000820921264941311
-0.00011382613237112 -0.000289762865328681
-0.000130166332074978 -0.000409737537711171
-0.000147196219757366 -0.000583912162727411
3.86057489327149e-05 0
-0.000342705784098645 -0.0014311558034876
-0.000344250927002913 -0.00149790201568935
-0.00129033985386131 -0.00420957999089997
3.57295361059597e-05 0
-0.000341304532165274 -0.00174498382719146
-5.42467490501586e-05 0
0.00494995401901187 0.00857554392711115
-3.44110490788029e-05 0
0.000260489626626723 0.000787640599706331
-7.92971046767991e-05 0
-5.2706708731675e-05 0
-6.53316585070817e-05 0
-6.44927900576462e-05 0
-6.58402088168244e-05 0
0.000207263466274509 0
-0.00026924520336753 -0.00050639980422942
-6.45702467474712e-08 0
-0.000253453097531173 -0.000615182239904854
-0.000244222695857629 -0.0006699024188956
0.000239037919423226 0.00131059425790512
-0.000369796590041216 -0.00108486940816118
0.000481029257490965 0.00262197502054615
3.99645300176003e-05 0
-0.000743681257593492 -0.00348004800012834
4.64395245557483e-05 0
0.000268778568170441 0.00166898745484456
0.000234022993150918 0.00157667005357058
-0.000157698458042259 -0.000536675519618985
0.000257567497724474 0.00156406001203643
-0.000393864649131338 -0.00109492772567213
-0.000453551489633974 -0.00174541629244486
-0.000425172192960501 -0.0012247485134261
1.22313656293676e-05 0
-0.000885984908397455 -0.00406034449316368
0.0016679742926587 0.00414187989531112
0.00143583718269607 0.00412281775819976
-0.000381049792162701 -0.00113405725404157
0.000349242072045374 0.00165845248138109
1.45189862102025e-05 0
-0.000166810087323135 -0.000845755661219658
3.41214442898729e-05 0
0.00141090234668561 0.00440656699092243
0.0016310144655144 0.00401107834899507
-0.000302915778911589 -0.000646661683527264
4.76773554534733e-05 0
-0.00273806182670697 -0.00866691374956554
-0.000444466390204771 -0.00158912761775948
6.63724456334687e-06 0
-0.000466307603546738 -0.00168358041354109
-0.000605793818526205 -0.00174232453200755
0.000172375590956598 0.000203118084850436
0.000292782149750323 0.00112343444433531
-0.000326279416791219 -0.00138032262323848
0.00171326686694441 0.00618684915923379
6.59488233485153e-05 0
0.000323853152989128 0.000681483933569113
0.000302001650466 0.000681869278367355
6.24173812480838e-05 0
0.000293073862328546 0.000546893723673813
0.000487977556960231 0.00170610854795593
4.378483224189e-06 0
-7.65167905496087e-05 0
3.0318839854409e-05 0
0.00021768126161568 0
-4.40971890014565e-05 0
0.000121840969985718 0.000271339632139126
0.000135968364485743 0.000273271706687718
0.000118298654069551 0.000250706950318175
0.000118377245019033 0.000263740907675848
-7.10670792696665e-05 0
0.000114988442687394 0.000223733850439314
0.000112693939242587 2.8670662635164e-05
0.000126157512962492 0.000119942002561462
-0.00115102583069652 -0.00337918746320063
-6.97019586661e-05 0
-2.94726648393258e-05 0
-0.00058518294165836 -0.00209455615633334
-0.000600307724123774 -0.00187102578702762
7.72270188004469e-05 0
-0.00147337677202736 -0.00528536103991834
-0.00076021882448922 -0.00198369027778413
-0.00145329658040077 -0.00519200772036894
-0.00126877684953517 -0.00346935250103379
-0.00049094981242451 -0.001801756599602
7.65635311958056e-05 0
8.33187044054338e-05 0
-0.000517195223278352 -0.00192011725138006
-4.66965514436214e-05 0
-0.000300929786551068 -0.000943967476024893
-0.000731769900846423 -0.00274754156697698
-0.000408687215345555 -0.00242395178282552
-0.000143637063737428 0
-7.51242357056351e-05 0
0.000313596800947792 0.001187185751453
-8.71246391160382e-05 0
-5.85071322624498e-06 0
-0.000169905514177149 -0.00032358511085741
-8.71255694538642e-05 -8.16389068422461e-05
-0.000179007728311386 -0.000371032024273863
-0.000117469075528565 -0.000631950073703653
-0.000104144169495451 -0.000340030488736539
0.000337973614111983 0.00154617355296725
-0.00018853776975065 0
8.81565864842343e-05 0
0.00017321694696711 0
0.000139003202833357 0
-0.000161537391799979 0
0.000129141528808844 0
2.81841767262109e-05 0
-5.96706581934587e-05 0
-5.93979728197835e-05 0
-5.38823390230676e-05 0
-6.22025130475085e-05 0
0.000188353154857731 0.000428121979585328
-8.37478649235456e-05 0
-5.54155424373713e-05 0
8.48799852090113e-05 0
2.52634410280584e-05 0
1.64929737564107e-05 0
-0.000193441384205987 -0.000320954342638892
0.000129427152485828 0.000466610135486327
-3.99113037985393e-05 0
-0.000102287316262937 0
8.67765339984722e-05 0
0.000108240082911671 0
0.000103344546593921 0
-3.21812868715644e-05 0
3.4389938197674e-05 0
-0.000187328455402243 -0.000138620287091764
-5.46822328302521e-05 0
0.000228204175853818 0.000212707858695525
-1.09811974437586e-05 0
-1.37883024233866e-05 0
0.00042813565162387 0.00113267102461906
0.00048299913089155 0.00169912819643922
-4.26294764492274e-05 0
-0.000557414424234438 -0.00244396297269238
-2.60697995962092e-06 0
-3.93634386043392e-05 0
5.43282599538265e-05 0
0.000118511555822784 0
-6.19166933117708e-05 0
-5.32493045982108e-05 0
4.6222431829058e-05 0
6.68405761548403e-05 0
0.000680432076873206 0.00387186001862037
-8.24567752447778e-05 -0.000435488315285273
0.00010630038340441 0
-0.000403478236340812 -0.00110767100891861
0.000285471050197223 0.000133014482161618
0.000262173903821836 0.000189406027828572
-0.000383199182086737 -0.000937750222525315
-0.000325405540845511 -0.000456799460924666
7.48533872068831e-05 0
-0.000296382560833838 -0.00024276551762867
-0.000116826601027703 0
7.17093282391451e-05 0
-0.000181624679913859 -0.000478502952538164
-2.51887397842443e-05 0
-5.46199434238329e-05 0
-0.000118300138442704 0
-5.45093220537522e-05 0
-0.000119113198626779 0
-0.000119550667455061 0
5.23966230418071e-05 0
-0.000135535333209265 0
-3.03394666666639e-05 0
-0.000142328857048451 -5.32791389225982e-05
3.88337961211465e-05 0
-0.000156448953656579 -3.88848577654236e-05
-7.42224559878441e-05 0
-0.00010006435484272 0
-9.2622302579399e-05 0
-6.48941615753323e-05 0
-5.71824258283475e-05 0
-6.7937758334817e-05 0
-7.61964610547684e-05 0
-3.52734124519185e-05 0
-6.94837564067415e-05 0
-1.95867441522808e-06 0
1.97607087419235e-05 0
3.93862741956748e-05 0
0.00010686774929586 0
1.58506726512139e-05 0
-2.94622765901231e-06 0
3.18883898542878e-06 0
0.000220086757728391 0.000241845171285563
0.000241962096620012 0.000484067181825673
-9.10190207029384e-05 0
-6.91053329050214e-05 0
0.000227818461480244 0.00132154615039891
-1.54935676009889e-05 0
7.12785768086785e-06 0
-3.22363549987228e-05 0
-8.97639234214546e-06 0
4.54245602477773e-05 0
-0.000245423887375221 -0.000487839975949997
-4.9586264048652e-05 0
-4.34043012660661e-05 0
0.000273272132069717 0.00118318778176246
0.000286173474002027 0.00145136112899602
0.000115797425462706 0
0.000189324160108981 0
-5.15874870206398e-05 0
0.000302149649282173 0.00125605638783903
0.000217881854219938 0
-0.000613322491562714 -0.00271287013199092
0.000322815209953589 0.000763512063777384
0.000348360296359249 0.000911483711923699
0.000347198646743169 0.00247466314420316
-0.000442023341288723 -0.00158767280140242
0.000124771546494318 0
-0.0007497870873385 -0.0045691202910902
-7.22824860857358e-05 0
0.000504303952883258 0.00216082178862071
0.000405355376859756 0.00434371887544674
-7.21023388835626e-05 0
-0.000314876242017326 -0.00165528937458826
-1.78711166985798e-05 0
-0.001884372710273 -0.00311727520276943
-0.00185471624333029 -0.00287919894636726
-0.00180283106823046 -0.00289407819781532
-0.000145122680746923 0
-0.000416175758377846 -0.00239508396164004
-0.000401295557372838 -0.00237660778431085
-0.00154888021029277 -0.00333874136498678
-0.00047332482599912 -0.000850867604826972
-0.000208908210724475 0
-0.0004070319544074 -0.00115122021751018
0.00036409191893093 0.00150601178492363
-1.65589961097381e-07 0
0.000148574919343128 0
6.72328186377481e-06 0
-7.89333894513156e-05 0
5.66622729893458e-05 0
7.46630608306438e-05 0
-0.000118366190190019 0
-1.50172755865691e-05 0
0.000383744436015221 0.00156090466304782
-2.25469443712052e-05 0
-0.000317613751405493 -0.000630964731508794
-1.18499770824857e-05 0
0.000351512058526615 0.00106658956539582
-7.23546630980414e-05 0
5.36954072118415e-05 0
7.1599531074691e-05 0
-6.51142303410803e-05 0
-8.19423142385607e-05 0
5.59244590599285e-05 0
-7.30317023533562e-05 0
-6.79794791911259e-05 0
0.000133970597974686 0
0.000146619406043217 0
5.48160753010285e-05 0
-0.000142526324455989 0
-0.00011738521828573 0
-0.000147962994429294 0
-0.000346665188254289 -0.000708609666566894
-0.00014739986951942 0
-0.000354549654736638 -0.000553507115596251
-0.000378110314303932 -0.000730819552472687
-0.000354823026388186 -0.000681888335649311
0.00112618291436 0.00392513698290638
-7.47734011296845e-05 0
0.000138722068222785 0
0.000151763773190533 0
-5.13000576852577e-05 0
0.000136582446926899 0
0.000106818787037998 0
0.000259503172627384 0
0.000364888919428977 0.000637032035127923
-0.00044216971048389 -0.00247218403440693
-0.000289951862310212 -0.000825630029346027
-0.000108861820642966 0
5.2578655083108e-05 0
0.000224583319226925 0.000922128951423638
0.000180867186413645 0
0.00011291548481418 0
0.000103506756369795 0
-2.09170915468294e-05 0
6.46775044062533e-05 0
-3.75061335075705e-05 0
4.12370509169928e-05 0
0.000121264170404442 0.000463750198763485
-0.000219185316069388 -0.000605667258430139
0.000206362930544381 0.000252823760337489
-2.5088323735425e-05 0
-0.000321384148831639 -0.00174825297092616
-0.00052863579788007 -0.00290556599804457
-0.000291761287975814 -0.000793581492601597
-0.000304072039121235 -0.000834944372072587
-0.000338363180353168 -0.000824553973587793
-0.000337507293687442 -0.00110554796289733
-0.000399961177935617 -0.00116723479583414
-0.000264711292095147 -0.000370790717518844
0.000136807992034132 0.000309330379073987
-4.09744558831024e-05 0
-0.000211517004642783 -0.00083596290197625
-0.000165359156044252 -1.7598002672844e-05
-0.00017462269142739 0
-0.000219989533599817 -0.00100795433684283
-0.000166082608087744 0
1.282396653535e-05 0
-0.000316119595738959 -0.00107276476555953
4.68867980459741e-05 0
-0.000222324967728065 0
-0.00012585292183939 0
-0.000111933366720242 0
-0.000301695919394546 -0.00103280788334985
-5.11930052468685e-05 0
-8.53557181529536e-05 0
-8.60769718805753e-05 0
-0.000134859857851294 0
-7.07739769523495e-05 0
-0.000117694304507002 0
-9.10377162351793e-05 0
0.000230294399975293 0.000718729494399761
-0.000519259616873372 -0.0028580428217507
0.000395089067280564 0.00202674604430365
3.43871580675494e-05 0
3.12277033774382e-05 0
4.5453930876954e-05 0
4.11289571069341e-05 0
8.15026404807248e-06 0
0.00010130596469664 0
7.7626976055129e-05 0
0.000105663824435071 0
3.17073413428952e-05 0
-8.84897057483519e-05 0
-0.000105947479217217 0
7.13133527495848e-05 0
5.86349709876145e-06 0
-5.2926505712099e-05 0
0.000734878182227489 0.00291525605629876
0.000285847323657446 0.00233520396125076
9.69937728965859e-05 0
9.19902593457467e-05 0
2.11264344330285e-05 0
-2.0688192123259e-05 0
7.37584420565425e-05 0
0.00010745239687579 0
0.000106412590489536 0
-0.000109837149741479 0
7.66148431054496e-05 0
0.00062923861759589 0.00262919093765621
0.000307222112009246 0.000917975694239081
0.000299303366323157 0.000180682057680659
0.000373158377674386 0.00158678814140524
3.18542156340568e-05 0
1.76003807948448e-05 0
1.14836463391969e-05 0
8.55726511918158e-05 0
0.000282031741147602 0.000361299882467057
8.39189336618425e-05 0
8.30782348224678e-05 0
0.000310272983436986 0.000890424611610534
-0.00023646045261553 -0.000464010904654351
-0.000114401863376023 0
0.000311410364859687 0.00227351076856578
-0.000106752705119491 0
-0.000368514090928332 -0.00161800267486165
7.32920357573404e-05 0
1.19523990197986e-05 0
0.000215814052559259 0
8.39698036914959e-05 0
0.000211215177564261 0
0.00021601746422352 0
0.00022508763545917 0
0.000233769262122799 0.00156771028059276
8.45741950968255e-05 0
6.07260380369363e-05 0
5.34910343256197e-05 0
5.91037524057823e-05 0
0.000225405166074636 0.000348149616830489
2.00196330842808e-05 0
3.6430212103803e-05 0
0.000734779788619513 0.00395497566913535
0.000211714794188642 0.000143523737859391
3.62656429239151e-05 0
6.2299056757908e-05 0
0.000159649102928988 0
8.92243347196898e-05 0
7.59664084203243e-05 0
-4.11719535174235e-05 0
0.000180975467645565 0
-0.000470749588428648 -0.002201314093022
3.01637971735057e-05 0
4.82444088436959e-05 0
6.49689995019945e-06 0
3.79985263563256e-05 0
3.38522801490985e-05 0
2.01542046082833e-05 0
6.0252359005118e-05 0
1.79302030178157e-05 0
8.97942673461249e-05 0
6.08396813517279e-05 0
0.000164962973740272 0
-0.00552906354223932 -0.00844944680185846
0.000561059712660575 0.00253780639935412
-1.69415075752632e-05 0
-2.39150605298409e-05 0
0.000218978129844897 0.000179112508147828
0.000499245654439669 0.00253699378878081
0.00103856373875372 0.00344452020510804
0.000120951912112063 0
0.000461141914911847 0.00253340984542426
0.00108842406864757 0.00337753678964112
-0.00108356380238541 -0.00582112195758953
0.000768005596792634 0.00317470809624637
0.000417969053609125 0.00270471404190005
-6.44050079363352e-05 0
0.000983005624653808 0.00356985440578925
-3.99194068270859e-05 0
-0.000455816747000883 -0.0023665027698791
0.000182019323224808 0
-0.000539131104632009 -0.00286471726302589
-1.93610219235817e-05 0
-2.31432286409877e-05 0
0.000184378385818674 0.000127299406377264
-4.42417499936661e-05 0
-2.17108686105747e-05 0
-3.54557619947531e-05 0
0.000118527454705292 0
-0.000181917116726832 -0.000574439069280157
0.000140467471231538 0.000684673854508685
-0.000169540178744954 -0.000162231765997
-6.23063762174938e-05 0
-0.000172948359281883 -0.000216353459095066
-0.000157982003157906 0
0.000208751174136347 0.000200097135388325
-0.000151494526853265 0
2.2380701471855e-05 0
-0.000249726958508506 -0.000283329067968589
0.000375946004493869 0.00150841215839659
-0.000271710944101356 -0.000737957878942053
0.000102200783893593 0
-8.60083100741342e-05 0
-0.000868039536011966 -0.00445882103305116
-6.84870354107459e-05 0
-6.88657057622023e-05 0
-5.38308481553996e-05 0
-6.77233308423506e-05 0
-0.000288256867270058 -0.000800151413711403
-0.000180387362028097 0
-0.000162712114292188 0
-0.0001761168668815 0
-0.000130123560746162 0
-0.000189326221874762 0
4.39748234960605e-05 0
-0.000899828049883167 -0.00257202436894847
0.000292728075778484 0.00076989173454639
-0.000625404576905056 -0.00190220585362295
-0.00221820178723868 -0.00606858035645578
0.000251649411832398 0.00209599740447862
-0.0186559305574189 -0.0252141041832222
-0.0251903362838834 -0.035804532485784
0.00504570610046571 0.00637010846803977
-0.0173035018858747 -0.0223852026110327
0.00125132083979607 0.00314481040259581
0.00135113280136115 0.00313412716018976
0.00143906003792979 0.00328493082699838
-0.00721084131908291 -0.00908953051898355
0.000649004600995477 0.00112616815659903
0.00033795571593628 0.00101922772548012
0.00114151914689613 0.00438124566744216
0.0191730528188172 0.0266428911221926
0.00117849746950454 0.00468608360223638
0.0193702284495152 0.0271428498508738
5.69898665515337e-07 0
0.0206987730933958 0.0292693161420236
0.0188893901043143 0.0234507073090705
0.00029140703041191 0
0.000106172957378891 0
0.0180181405023774 0.0221773212338706
0.00117247281838912 0.00394270895733946
0.00127463057301563 0.00129101777531172
0.00154604702481466 0.00177923020246938
0.00176606118198867 0.00316109734522692
0.0146779849336329 0.0165402560353813
0.0104292122512404 0.0150392364560876
0.000409466409148822 0
0.0056604271831527 0.00935160715850264
0.0106232902328488 0.00975691042440706
0.000171499290445509 0
0.00017024490444253 0
0.000214992880661434 0
0.00143452021217229 0.00179825603763943
0.00157989552998279 0.00228040135704575
0.000738811970024332 0.00271538301781239
0.000977499675968371 0.00301520205127997
0.00241625213180664 0.00460244665002303
0.00158214539615482 0.00444064857938799
-0.00916029635831879 -0.0131454218224355
0.000777073081288131 0.0025411241030176
0.000175049205054411 0
0.000642210646535333 0.00272331813274115
8.26776293297641e-05 0
0.000253012779049421 0.00128258150059208
0.000215414828672399 0.000538769844383592
0.000191859577189867 0.000349423652306322
0.000227513527724227 0.000839821181222948
0.00026125927664451 0.000942034117670254
-0.00034509587270969 0
-0.000543687090646179 -0.00080325410144894
-0.000355823534463228 -0.00123178899669472
-0.000557016726270077 -0.00120281844284735
6.88994710392199e-05 0
-0.000700213041751401 -0.00198718647650509
-0.000305009112912826 -0.00060639143984446
-5.57337528909805e-07 0
-0.000841558751296817 -0.00248848507684833
-0.000326168194534266 -0.000884781964695574
-0.000435523488561402 0
-0.000324680118871695 -0.000185329225193878
-1.46794184142849e-05 0
-0.000483669651108679 -0.000145435006404909
0.000151573814828042 0
0.000150147949847853 0
0.000102963625148694 0
-0.000119022757731271 0
0.000234125626755597 0.000719418540967131
0.000165791085513639 0
2.8149661899735e-06 0
0.000124462675771688 0
6.85805205995754e-05 0
6.01689300684424e-05 0
5.79731302014954e-05 0
0.000112240715860594 0
0.00010974769319834 0
7.0184103199738e-05 0
-7.21848125070097e-05 0
1.5886342450927e-05 0
1.46501368525413e-05 0
-5.26672642994529e-05 0
-0.000106652481303447 0
-7.08159362388591e-05 0
0.000115998837258073 0
0.000114643803394348 0
-3.39448131429993e-05 0
8.56604600890209e-05 0
5.36489127541411e-05 0
0.000124799000865912 0
-8.42519723861488e-06 0
0.000112866410420597 0
0.000110979992170403 0
-0.00011503958995197 -0.000312910815236894
-2.66075196761004e-05 0
9.99588537736382e-05 0
0.000132824234069354 0
4.52052492230866e-06 0
6.18812338847161e-06 0
-3.13066456894545e-05 0
1.08225396254623e-05 0
-8.63293413457945e-05 0
-4.30118767155475e-06 0
4.77048205302485e-05 0
9.05350180766528e-05 0
-5.68716305092061e-05 0
0.000150133772942882 0
-0.000156766291527892 0
0.000245721206470978 0.00115270335471744
-1.00551468552894e-05 0
-5.44786781678536e-06 0
0.000236886213179276 0.000905975104122067
0.00020704844859933 0.000763479141539076
1.43603594639312e-06 0
-6.38975150980229e-05 0
2.62808645831511e-05 0
-7.43715585537681e-06 0
5.46285836617539e-05 0
5.62852323620718e-05 0
0.000147604208347209 0
0.000173120028049318 0
0.000184483877537733 0
0.000134106423543362 0
0.000180012207545873 0
0.000314028204069033 0.00145461899450895
0.000135099098499528 0
8.52818353858022e-06 0
9.58580199464887e-05 0
0.000147944917480177 0.000299054917397677
0.000121323193959001 0
-0.000164100548719039 -0.000258567338418481
-6.08660457654996e-05 0
-3.96716041056917e-05 0
-6.46045035229172e-05 0
-7.88008545785149e-05 0
-1.77654388381597e-06 0
6.04366739247288e-05 0
0.000213040893187499 0.000203863978538823
0.00056711351086956 0.00248716456723307
0.00343047306195275 0.00669252881941444
-4.14428412928247e-05 -0.00078185596531062
-0.00131773552415646 -0.00405990553770179
-0.00088547090792763 -0.00252077188017348
0.000181043073405211 0
-0.000671764263616561 -0.00351852507890877
-3.80008388316755e-05 0
-1.76073358550516e-05 0
-7.55403387104838e-05 0
-5.20474039065596e-05 0
6.22545511694731e-05 0
-5.32309483549622e-05 0
-4.36142938482868e-05 0
5.52215146317247e-05 0
-5.05922079122982e-05 0
-5.27668224762452e-05 0
-1.34843159712282e-05 0
-2.74391492550991e-05 0
-6.08031327427867e-05 0
2.09455352400948e-05 0
-8.74824932118582e-05 0
-0.000796706292502458 -0.00262328892173881
-3.22856802903323e-05 0
-0.000208063293712184 -0.00100927873404646
-0.000108538034819876 0
5.35190967694225e-05 0
-1.25875282103979e-05 0
-0.000559669380917762 -0.00276705593769457
-0.000544927885135772 -0.000659978046268297
-0.000244871258807674 -0.0012418739865736
0.00100197758291412 0.00277272402077369
-5.83892032975901e-05 0
0.000252793865746074 0.000304766141253383
-0.000152557935569264 -0.00085997986526526
0.000306677043242438 0.000756450808955609
0.00033407092216386 0.000747535773035215
0.000663865971246525 0.00194049417227583
-1.98053839977911e-05 0
-0.000425809582170986 -3.74343119173492e-05
0.000202145356766845 0.00107514042635306
0.000862380757884679 0.00271542319391729
0.000307589513508264 0.0023368971215691
-0.000456305673444129 -0.000314383189237751
0.000408887048733483 0.00136119659000844
-0.000364003325750476 0
-6.11950668866275e-05 0
-0.000839887162863387 -0.00181324918178715
-0.000182053741343499 -0.00026148888199736
0.00197068232484155 0.00529071856837407
-0.00127986103298475 -0.00311984978309679
-0.000183366030134375 0
-0.00115845121206638 -0.00339320733525
-0.000187405349063518 -0.000215025051018441
-0.000206944640797167 -0.000352603052452863
-0.000579423227025421 -0.000969290134272906
-0.000183832196759764 -0.000335092905517059
-0.00245410363997511 -0.00694498865607815
7.30307332758067e-05 0
0.000342122656584951 0.00206982616982123
2.95058237576923e-05 0
3.29794707675028e-05 0
-4.73353854696567e-07 0
-0.000605935937196088 -0.00242885193212557
0.0018472128496796 0.00575163239456645
-0.00228806067045828 -0.00693762844916472
0.00200223224114413 0.00562352400166473
0.00156463804968768 0.00417461689056566
0.00126450010096604 0.00413555543200922
0.00138822437139675 0.00414093397328613
7.33587761323483e-05 0
-0.0024195627685483 -0.00745446331315514
-0.00114204558392032 -0.00175624217476384
-0.00232068933961511 -0.0077181884280053
-0.00125488877177813 -0.00234071164606443
0.000269320257682165 0.000958939397679509
9.3372045043336e-05 0
-0.00171630534840633 -0.00458964830008521
0.000273667223311373 0.00105586431544021
-0.00145291986704824 -0.00548470905478568
0.000114192186910516 0
7.97648255955373e-05 0
-0.00127589064939299 -0.00413965456371592
-0.000195627459168036 -0.00115891074402414
0.00142650442038698 0.00437144569950814
0.00106451979389177 0.00440482892490383
-0.00015409629729213 -0.000524941976977674
-6.21355494291115e-05 0
-0.00143151971594423 -0.00406708902745908
-0.0026301317758989 -0.00637744082633845
-0.000110067140167625 0
-0.000970776222516468 -0.00380661879495388
-0.000822762615267275 -0.00266474780005588
-6.05752315353557e-05 -2.36809466269226e-05
-0.000799435660830032 -0.00256132116965047
-0.000872846772772424 -0.00250246155982384
-3.48944419913987e-05 0
1.98586563667614e-07 0
-1.65323988954715e-05 0
-0.00201595096282795 -0.00474618572311357
-0.0142147479827402 -0.0186352692641154
-0.0118705682649164 -0.0140605717735435
-0.0160023992442451 -0.022606297000536
9.65037112929333e-06 0
0.000392935833847243 0.000986298036699723
-0.0158543100297579 -0.020899470905849
5.91298864895288e-05 0
-0.0129931186514447 -0.0166918930612725
0.00168041360427994 0.00468684755558541
-0.0100172807798088 -0.0130794961974434
-0.0109422240323932 -0.0145306354128164
-0.0138853166459533 -0.0172953946619967
4.39443374601992e-06 0
-0.0108631926661754 -0.0129926403811058
-0.0103914711397116 -0.0129484927810572
0.00026718786536677 0.00045947353054467
0.000254931210714587 0.000363504504839042
0.000233857220503935 1.85198680399483e-05
0.000267590269366463 0
0.00121061484663877 0.00330073441546394
-4.18394322483705e-05 0
-5.58667758927378e-05 0
0.000538156343904084 0.00105321642407137
0.000115122036751385 0
8.86627946408095e-05 0
0.00744875612644625 0.0110852462233691
8.9798173411293e-05 0
0.000740171316250591 0.00313104872541625
0.000123309721883079 0
0.000192551679045786 0
0.013670035198385 0.0182139875914946
6.89886289500286e-05 0
-6.17945111381188e-05 0
0.00829990078645136 0.0113044028708699
0.000114151320405787 0
0.0135314204387613 0.0182746770206955
7.26476428662245e-05 0
-0.00210326188997002 -0.00594020692267876
0.000639984121561959 0.00264246770205112
0.000576613625192848 0.00324314225191872
0.000143875087197804 0
0.000142959076778033 0
0.00876586477271861 0.0122573841561671
0.000668309077600372 0.00233497877991128
0.00962426143858199 0.0125839611198599
0.000131430728932262 0
0.0052544907387431 0.00899644478743778
0.000567681451103703 0.00111796327652701
0.000540482344870258 0.00140364618740612
0.000497922825007742 0.00153798423729537
0.000485780687884307 0.00128303067348942
0.000319400269294269 0.00114273684026839
0.000104002054141551 0
0.00918100975615127 0.012195855318185
0.000287211387389129 0.001123931661416
0.00380831303630237 0.0070598572153151
0.000362237590595346 0.000964432218541172
9.53922763581874e-06 0
4.84869178265635e-05 0
0.00403023340169364 0.00756081804215569
0.00341649894675917 0.00708919337746856
0.000150263704456228 0
3.25437761668416e-05 0
0.00624236971492926 0.0114569748390422
0.0105067993501648 0.014188418846783
-6.31177201757269e-05 0
0.00432035249352352 0.00850274684985696
5.55758008441697e-05 0
0.00498674565326001 0.00875270190612461
0.00832790361611812 0.0106612832823672
0.000635213966067175 0.00216806720484869
0.00352091769807024 0.00759154456009356
0.00409554837404956 0.00740526467244048
0.00444031126767424 0.00775692745832954
-0.0118985593900416 -0.0160150010770088
0.00551370423629175 0.00850891973590561
-0.00725950070275644 -0.0106663930845963
7.19692984493384e-05 0
0.000818467157802546 0.00362299853053597
-0.00171980078033218 -0.00592529358593319
0.000584343323369498 0.00330924993216596
-0.00224930429180466 -0.00667524695654893
0.00282942884474957 0.00661204598894742
-0.00210242312701773 -0.00667640264062897
-0.0111121395200435 -0.0133801197927462
-0.000708410136919731 -0.00298044455846788
-3.53906342675802e-06 0
0.00011434318887657 0
0.000115404337711561 0
2.00161271618613e-05 0
-3.63850762319461e-05 0
-0.000317587786730203 -0.00154124293882055
0.000361055334183673 0.00103920387150106
-0.000137232141840202 0
-4.38343916418324e-05 0
-1.12163765036917e-05 0
-2.0856329712317e-05 0
0.000260781255490862 0
-1.3403524523726e-05 0
0.000104239897030181 0
7.31518997781862e-05 0
2.45994344595652e-05 0
-7.12937692384259e-05 0
0.000153820229272432 0
0.000116337358675481 0
0.000191249477026243 0
0.000108155915190206 0
6.15736644857649e-05 0
0.000144014725436835 0
0.000541528243507312 0.00143059648054012
-9.121176592684e-05 0
0.0001412079627736 0
-9.36314396013911e-05 0
0.00020100487609552 0
-1.01503330471925e-06 0
0.000850971592773461 0.00352460945511801
0.000264926673691534 0
2.07457414180045e-05 0
3.1404769659061e-05 0
-1.5105001365815e-05 0
-9.53155905302665e-06 0
9.19627099634954e-06 0
-0.000264583641048803 0
-0.000608460917122176 -0.00140865825258505
0.000850047474966042 0.00202615266172925
-4.29585900831983e-05 0
0.00104565769582843 0.0030129847553576
0.000134134050210741 0
0.000149303850423923 0
0.000147664180126729 0
-0.00103714512679808 -0.00466235907413488
-2.36494929336886e-05 0
0.000101612334324245 0
9.73942098221599e-05 0
9.62801299592188e-05 0
-0.000410000067593093 -0.000489407278695064
-2.57989493043812e-05 0
0.00795592302617997 0.00887230290782496
9.19515252171735e-05 0
-0.000271131078744242 -5.42277228428361e-05
0.000116790467358119 0
5.91763109264761e-05 0
0.00140243539817596 0.00381923375535197
-0.00014584580547885 0
0.00080636898136823 0.00452473816483043
0.00073030188990185 0.00382012371738335
0.000189307959818451 0
4.82514464663675e-05 0
0.000167562218978538 0
0.000144472482538261 0
-0.000576245976862571 -0.00333134857051681
-0.00011078529363432 0
0.00013235865025878 0
-0.000101113380134972 0
2.50577892591069e-05 0
-0.000187120773080681 0
-8.8294712417917e-05 0
-0.000108051288259001 0
0.000160968301223945 0
4.07067389616983e-05 0
0.000186436850268303 0.000232725388245322
0.000510528694255863 0.00259502989651576
0.000612687736233702 0.0033245424227898
-1.87620655630587e-06 0
0.000131845839010169 0
-1.90858819970099e-05 0
-1.04523996083537e-05 0
-0.000198243970963944 0
0.000147664348552238 0
0.000280008045081145 0.00107477691158646
0.000189573007378559 0.000661360975653888
0.000907211687670541 0.00342951775569284
0.0011808175279833 0.00467805648431789
0.000915059618820077 0.00324849770282388
0.000652623767794947 0.0017385553149116
0.000478176097927685 0.00265032679904996
0.000103937330876291 0
0.000434569454516324 0.00205113311386116
0.000713322453071201 0.00197059428320077
0.000956971867908703 0.00255763083166449
0.00114370424743444 0.00312527336136257
-0.000488253820917647 -0.00159424978920779
0.00186546514160127 0.00577213099868311
0.000362073972641344 0.00265791840528489
0.000494439240433167 0.000866516648804735
-0.00171401967414815 -0.00584644277984888
3.21115580606783e-05 0
9.1953208470038e-05 0
-7.83633527424157e-05 -0.000696789873804714
0.000857828404763944 0.00351507972955326
0.000364036857470758 0.0017475592258463
-0.000178740499379658 0
0.000112781279527941 0
0.000347904607423305 0.00154515562367158
0.000353198372856134 0.00143832893559885
-5.63734895946738e-05 0
-0.000121830876158532 0
-0.000268973124009102 -0.000268996600313351
-4.12445976390713e-05 0
5.84887407415977e-06 0
-6.06571635807297e-06 0
-7.06502038061629e-06 0
2.35721266325756e-06 0
-1.81367495653132e-05 0
1.09968957617899e-05 0
-7.88192577108035e-06 0
0.000140847396858647 0.000272552470841288
-3.45665213013107e-05 0
-3.39904701853676e-05 0
0.000135172746398338 0.000119004583461807
-5.84392346626485e-06 0
3.333729750072e-05 0
-1.65899542044583e-06 0
-2.38028323638199e-05 0
-3.22619298251293e-05 0
-0.000323139843566624 -0.00106709245699228
2.28895824230043e-05 0
2.24834965473961e-05 0
6.17602846891844e-05 0
-0.00017106858397165 -0.000232490431232295
-0.000104157216099586 0
-0.000109050234387413 0
-0.000155727356526231 -0.000184133005701123
-0.000144860415732415 0
-0.000143497645351908 0
-0.000177849256993948 -0.000587905597361744
-0.000116365818984526 0
-0.000209380824435377 -9.28666762025659e-05
-0.000175314567573968 0
-0.000266404525099788 -0.000835966327229062
6.3384860454734e-05 0
0.000302102514151202 0.00185623215999515
0.00013020454576238 0
0.000134701365277709 0
0.000122266029722901 0
0.000136241872562922 0
0.000194982177263664 0
0.000121596848671326 0
-1.48426786730473e-05 0
0.000160246929475421 0.000376162125884029
-2.65659254960939e-05 0
3.58278031917116e-05 0
7.07788514349013e-05 0
0.000146510736056324 0.000177803314150381
3.75563949227837e-05 0
0.00017699051894726 0
3.40172793336979e-05 0
0.000101528993378891 0
5.99311740462331e-05 0
-0.000189750984191568 -0.00106950740697297
6.71180887529111e-05 0
9.70167324844857e-05 0
-6.71453302250102e-05 0
-0.000443653705869939 -0.00165070660128927
-0.000254272152759207 -0.00158393838644784
-5.56187758576731e-06 0
-0.00138821550826057 -0.00648366928292812
0.000432469028278477 0.00190266858263472
-0.000425747613788508 -0.00201464410080488
2.23592181361341e-05 0
0.000304662440201293 0.000333834131581525
-8.83468569554792e-05 0
0.000444954847174405 0.00210759795151241
-0.000128539534783802 -0.000405010751879396
0.000159497210820224 0.000913962781502911
-2.42448958296089e-05 0
5.01442780558043e-05 0
0.000111314727593407 0
7.36155836182255e-05 0
9.31301851100477e-05 0
3.494371245499e-06 0
8.99313744117182e-05 0
8.47783248400756e-05 0
0.000156147149820542 0.000471297847398866
3.0256508745789e-05 0
0.000159064189225652 0
-6.72704276649879e-05 0
-7.07040970550752e-05 0
-6.91627163130658e-05 0
-6.86730256116628e-05 0
-6.3469749426744e-05 0
-7.06596631377309e-05 0
-6.26355927053345e-05 0
0.000210522192688485 0
0.000222773676657724 0.000282886118589487
0.000198847671866693 0.000800457578371065
0.000123905280505144 0
0.000132722677531002 0
0.000125965312870222 0
1.74665630818039e-05 0
3.64596825646246e-05 0
-3.2488015107811e-05 0
4.70755343777819e-05 0
-5.33912256492339e-05 0
-7.8879225164056e-05 0
-6.57238719266856e-05 0
-4.72853233331089e-05 0
4.94414206222778e-05 0
-2.61886970452574e-05 0
0.000201149986175734 0.000465926771917434
-0.000179947170776554 -5.51460673014442e-05
0.000107482491888508 0
-7.25381874271393e-05 0
-0.000136073718076258 0
0.0001597115873526 0.000434320630289638
0.000135431661208975 0
0.000426918027914 0.00202022039273201
7.32529187875925e-06 0
-2.52654309131191e-05 0
-4.61291661286467e-05 0
-3.44959356151697e-05 0
-7.4313191263716e-05 0
-1.7463057937105e-05 0
-2.42170804296365e-05 0
0.000118164034174288 2.68818446936785e-05
-3.18362525780445e-05 0
-4.60838253771844e-05 0
-0.000492975292307936 -0.00191764471742868
-1.80720411795546e-05 0
0.000157938766871926 0
-0.00022804968667862 -0.000901273061508467
-0.000482505735636469 -0.00245926428848161
-0.000197971687274146 -0.000523873032545135
6.52906841289445e-05 0
-4.75367140474794e-05 0
-8.98976201584585e-05 0
-1.55957129330633e-05 0
-6.19821107622282e-05 0
-8.56119143157614e-05 0
0.000167254926001326 0.000673129052984797
-6.47573850421742e-05 0
-0.000347424128640462 -0.00177025859635982
-0.000281287172811484 -0.000921605399816885
-0.000289652395706149 -0.00151264593516398
2.86850094768234e-05 0
-8.51897170735269e-05 0
-5.89845935682962e-05 0
-0.000142159726048915 -0.000300883331920884
5.29305028055361e-05 0
2.45696746537408e-05 0
-4.30346048681502e-05 0
-0.000410948967118713 -0.00267036489758239
-1.85620987900064e-05 0
-0.000132547978690904 0
-0.000332517140873376 -0.00152808887980786
-9.49701030789041e-05 0
-0.000105470494614171 0
-0.000114304251857265 0
5.79652443645227e-05 0
-0.000115708968648851 0
-0.000201169492048662 -3.5016455597235e-06
-0.000195085632479407 0
0.000347251324761415 0.00145172429380829
-0.000358467206816732 -0.00142256993632519
8.73275546111744e-05 0
-0.00015361448059455 -0.000305399852149042
0.000122755106897903 0
7.9360342376368e-05 0
-3.48137810848746e-05 0
-0.000121733650231461 -0.000415439131282399
-0.000122437693977836 0
-0.000125500787909026 -2.65826654760228e-05
0.00012348664413438 0
-5.79538214725825e-06 0
-0.000334697295083116 -0.00139112376236334
-0.000107597341104957 0
-3.12999176921216e-05 0
0.000180962402641065 0.000708336104672996
-2.65356070694265e-05 0
5.30669838034388e-05 0
0.000284776630361026 0.00119494658800212
-0.000193322597470645 -0.000275335665895069
-9.02561702343211e-05 0
0.000256332318260547 0.000876003915185833
0.00056479483350991 0.00306839549280765
-0.000725979854625719 -0.00367033554622502
0.0001943456863621 0.000714330957921079
0.000127914251683427 0
-2.32587092970923e-05 0
-8.87631901955386e-05 0
-8.83818581970967e-05 0
0.000243773385610707 0.000694776575696458
-9.08964048125061e-05 0
0.000241985233161864 0
0.000404585145282661 0.00202467613428823
-3.20822567967725e-05 0
-4.58573797679725e-05 0
-0.000247634604322558 -0.000221956837803651
-0.000126525807090791 -0.000183061024154317
1.98192099494716e-05 0
0.000379724411410948 0.00263474949577709
0.000715338121352562 0.00310269177876534
0.000436037561039963 0.00160614202080208
4.85674976511367e-05 0
0.000314983233088203 0.000916456454794657
0.000111549428280731 0
-7.15714303233658e-05 0
0.000263753232041809 0.00136723795151546
-1.54778840734337e-05 0
-0.000468939673056729 -0.00223406089525628
-0.00019942347312945 -7.31072594509261e-05
-4.8223662322206e-05 0
-0.000163205546941958 0
6.0087542979081e-06 0
-1.24131414339529e-06 0
-1.26471588800787e-05 0
-6.90505232282052e-05 0
-1.904739400412e-05 0
-2.42485298758989e-05 0
-2.15350090657095e-05 0
1.62570402666884e-06 0
1.24609641704081e-06 0
-1.97263505724072e-06 0
-1.34169973983589e-05 0
-9.49847380631663e-07 0
-1.50840473949807e-05 0
-2.1324167956728e-05 0
-2.68315617973558e-05 0
-9.92188056333841e-06 0
0.000124410201295039 0
-0.000109820407528427 0
-0.000199018271525844 0
-0.000170249352199843 -0.000972797303056205
0.000164117974323407 9.85611726537457e-05
0.000242761098884108 0.00114386523882654
0.000193303488947897 0.00063038712262193
-0.000408910006714469 -0.00165985279965812
-0.000193582228778131 -0.000954265744331207
-0.000510880104440124 -0.00221601351041746
-0.000449273082948217 -0.00163294375455113
1.68979331039881e-05 0
-0.000421192283612494 -0.00175973660901476
4.24486120151731e-05 0
-0.000517666244819456 -0.00236903063675575
0.00150957040117606 0.00626327208915007
-0.000243180329291613 -0.00076730875867021
0.00019607883127826 0.000455232905174385
0.000225064853630384 0.00076004863413623
-9.93447248704701e-05 0
4.60996187390641e-05 0
2.68012209641018e-05 0
0.000151092325770641 0
1.37049092086374e-05 0
-0.000157749371063837 0
-0.000330111793337169 -0.00132426935408316
-0.000388013552817488 -0.00210664647072955
-0.000170184991716434 -0.000393859384342158
-0.000173738408585327 0
-0.000278656086415955 -0.000711494298202081
-0.000276759271186356 -0.000717211670622994
-0.000290978122245465 -0.000988377473741453
-9.73965805830956e-05 0
-0.000299814359410758 -0.000967464988692041
-0.000221045217062562 -0.000189221474284774
5.87776306960747e-05 0
7.03271740364323e-05 0
0.000217226678243796 0.000397106689978195
0.000229545122546692 0.00034212131474968
6.54346826642888e-05 0
2.86207042333024e-05 0
-1.24064218808252e-05 0
9.98888089132533e-05 0
9.58889379178064e-05 0
-0.000139193087519829 0
-0.000130048386367156 0
8.02694842072012e-05 0
4.7831301706446e-05 0
-0.000109890859377317 0
-0.000133190708928032 0
-4.815857045002e-05 0
-2.75915190469503e-05 0
1.69729561467641e-05 0
0.000159151666276575 0
-1.56646151384364e-05 0
6.9307652598255e-05 0
-0.000148277293843832 0
2.84312046898211e-06 0
-1.14502418741734e-05 0
-3.09269837234788e-05 0
-1.75657233190471e-06 0
2.64754585239632e-07 0
6.21480626234519e-05 0
3.61201563368795e-05 0
-4.66215370089347e-05 0
0.000100578498223257 0
4.32199696724011e-05 0
-5.42569110140177e-05 0
5.68302167723958e-05 0
4.79066141407301e-05 0
3.69055701503791e-05 0
4.4228723485188e-05 0
4.9101727992892e-05 0
0.000184030336794899 0.000425149193120356
3.5913331518968e-05 0
0.000186579776552365 0.000573097113745735
-0.000150511683935644 0
4.38078129375329e-05 0
5.98847896022874e-05 0
9.1595270408156e-05 0
8.60886570581483e-05 0
3.35828147809118e-05 0
5.41333346302794e-05 0
1.42109623915845e-05 0
2.86459860674722e-05 0
4.88002056711251e-05 0
-0.00015271683334605 0
0.000100800238951889 0
7.75018611234508e-05 0
-0.000332791789210632 -0.00199762852253815
-0.000120756331404701 0
-2.28543503925264e-05 0
0.000139701572287847 0
1.60326110316602e-05 0
4.86926777614806e-05 0
-1.9005564770898e-05 0
-6.39855114553267e-05 0
0.000194292273215614 0
-0.000272818187701302 -0.00122584147630969
4.8732920006222e-05 0
6.45932205205264e-05 0
3.99026290479804e-05 0
-8.2692901917279e-05 0
-0.000133150515657597 0
2.42130687775096e-05 0
-0.00013391027561495 0
0.000526747385397688 0.00175276551823443
0.000103458195773222 0
6.51389259668427e-06 0
0.000637756692092852 0.00217060577031757
0.000533783786135155 0.00213722256524016
7.51772253491555e-05 0
0.000317063039123576 0.000863256294072225
0.000289615466127059 0.000394508979495055
4.55676282119454e-06 0
0.00010538171490587 0
-0.000322620353588841 -0.000855669542284576
-0.000347528669470189 -0.00133285393448729
-0.000806848091399091 -0.00367937356394678
-1.35200883902842e-06 0
8.24602774316009e-06 0
1.43264417516089e-05 0
-0.000251614467775231 -0.000318002517283096
-0.000606054781900946 -0.00237825379629361
0.00010115954281895 0
-0.000101613823222493 0
2.65256069279945e-05 0
1.3743487881503e-05 0
1.21337953319425e-05 0
-0.000651296086305129 -0.00243493491412371
-0.000766204903384238 -0.00296035419534367
0.000256190831675949 0.000482916554407188
0.000310750935267679 0.00143275493426991
0.000106570145117993 0
-2.53025029988422e-05 0
0.000358270856372194 0.00130991302592092
0.000448249018399322 0.00192033613777635
7.21144189684953e-05 0
0.000234937336785022 0.000367806409628921
0.000144579978379006 0
0.000130825329211644 0
-2.93347515659368e-05 0
0.00030343177371959 0.00121587798429907
-7.13329677061331e-06 0
7.0701608830324e-05 0
0.000197089122770704 0
0.000127413802794822 0
-2.94190721756208e-05 0
0.000207494943732753 0
0.000204858379137792 0
-3.18381881112691e-05 0
0.000173464766427076 0
5.00327126303046e-05 0
-6.32664229800887e-06 0
-1.08374287113935e-05 0
8.67895104452195e-05 0
-2.10389827660584e-05 0
-2.42118190558999e-05 0
-8.80140026555271e-05 0
-7.39030131770039e-05 0
0.000139591178631761 0
-3.98402819824236e-06 0
0.000109355390913841 0
-6.8569188106857e-06 0
-0.000168358943781264 0
-0.000144477033604639 0
-3.3103693344881e-05 0
-0.00033919050013348 -0.00112104142859843
0.000107678506734225 0
-8.21857313761921e-06 0
3.10871646605351e-05 0
-0.00027849934367344 -0.00110584510437968
-0.000161457280328412 0
-0.000170379629762177 0
5.02806052544512e-05 0
3.63989391417048e-05 0
9.88629037091826e-05 0
5.47833429338625e-05 0
-3.05243310188235e-05 0
9.23539891853633e-05 0
-4.03852355344556e-05 0
-9.9405932123633e-05 0
-4.09100016968095e-05 0
3.00501102688129e-06 0
1.66971468391969e-05 0
-0.000243421350257869 -0.00110245880223173
2.31880942775701e-06 0
-1.41878167371701e-06 0
9.17547745523355e-06 0
-9.49969088130988e-05 0
-0.000158105345282517 0
-5.9491032843427e-05 0
-5.29539418573958e-05 0
-5.85991167512123e-05 0
1.46806065859616e-05 0
-5.91743621456968e-05 0
-7.19107272981356e-05 0
4.14563257322463e-05 0
-0.000216683394329901 -0.000419665985250955
-3.95778647193856e-05 0
0.000209441269865089 0.00108381997581094
5.71931032453679e-05 0
2.39971687546322e-05 0
1.63428955595923e-05 0
1.76903482126895e-05 0
3.50671229764325e-06 0
0.000122961252805324 0
-5.81261564815964e-05 0
-0.000140215940402561 0
-5.89037409129184e-05 0
-0.00040702427012377 -0.000698816702199957
-5.51110872751652e-05 0
-5.08392333102764e-05 0
1.75748901680656e-06 0
-0.000321256968595124 -0.00066482552278504
-0.000411524007038554 -0.00077794005469295
-0.000428159082485345 -0.000884918611027592
-0.000185978819433016 -0.000617525718220364
-0.000583943529214418 -0.00154868094321744
-9.05288268544773e-05 0
-0.0004658792032932 -0.00143096395716719
-8.10774174652358e-05 0
-0.000437862429519825 -0.000864774384048605
-0.000354059867536188 -0.000880340976174403
-8.02558241459697e-05 0
-3.09108857781641e-05 0
-6.24897905278515e-05 0
1.18655236509646e-05 0
-0.000125656195808341 0
-3.91597411430851e-05 0
4.06543351421264e-05 0
-5.10693845850808e-05 0
-4.11483170382292e-05 0
-6.00263900201349e-05 0
-9.64216899466127e-06 0
-9.87851713776192e-06 0
-3.73256234955087e-05 0
-3.02917115487153e-05 0
-3.03556089159799e-05 0
-0.000326623274282617 -0.00101718067773068
-0.000186915531917208 0
-0.000722426524267152 -0.00293933886365316
-0.000197427356915417 0
-0.000184591594794598 0
-0.000176727262076039 0
-0.000246198381477628 -0.000515340016275587
-5.10091213923134e-06 0
-2.02940548102761e-05 0
-0.00020610502714041 -0.000956345343473786
-4.38801722034208e-05 0
0.000167371500619716 7.34484367052287e-05
0.000400625204524895 0.00195852139412918
0.000464400970261009 0.00283477874167438
-0.000108725390581011 0
-0.000191428189300791 -0.00107424363638108
-0.00023988987011288 -0.000450052826948119
2.56352632023469e-05 0
-3.51903592797072e-05 0
3.1117867668605e-05 0
-9.09545839425576e-05 0
-8.13088233361487e-05 0
1.36883099867923e-05 0
-0.000102946956327878 0
-7.61523751158105e-05 0
-0.000102989742304244 0
-9.01528313357583e-05 0
-0.000104865064037492 0
-4.7796964525806e-05 0
4.77622525194037e-05 0
4.63687955732967e-05 0
7.45085278458727e-06 0
7.75377557672012e-06 0
4.90659107933226e-05 0
0.000122551965153318 0
-2.0083832417475e-05 0
6.16200910425167e-05 0
-4.92289720665688e-06 0
-9.33552623711688e-05 0
3.4169331313929e-05 0
5.1531265115555e-05 0
0.000150730742794661 0
4.05533164161257e-05 0
4.79461018422307e-05 0
-3.99179013351956e-06 0
-1.24905151036098e-05 0
0.000185016176159232 0
-0.000124916665401153 0
0.000191334304744804 0
-0.000140586537251703 0
-0.000129978027057552 0
0.000203152769985458 0
-0.000139633792727904 0
-8.2932833493387e-05 0
0.000115541529513292 0
-0.000147908934580151 0
-0.000161061309121869 0
-0.000157078533749161 0
0.000235686012351532 0
-0.000151992527022655 0
0.000165145172989125 0
0.000244510040691922 0
0.000166348145581013 0
7.69711200460156e-05 0
2.24520310149985e-05 0
-0.000153784337619581 0
0.000135729132088723 0
0.00145381192048852 0.00537512137683505
0.00026179279373631 0
-7.87202748772553e-07 0
-0.000295695695880032 -0.000346511145463096
-9.16183411639554e-05 0
0.000512174266020041 0.00202719963981495
0.000506658227083447 0.00222716631738814
-0.000280054926822133 -0.000270928247129793
-0.000260119517818393 -0.000115849583204262
-0.000249261623524794 -2.67024746942236e-05
0.000131817364606861 0
-0.000328624951993022 -3.23867931083885e-05
0.000124338773458316 0
0.000154418407370862 0.00019618881597628
-0.000256779247616026 0
-0.000139386289572423 0
-0.000277338014955807 -3.80413893781822e-05
0.000506285968296687 0.00227330811587777
-0.000510643731875046 -0.00132053494810184
-0.000471701345193685 -0.00111258334945464
-0.000593345834380489 -0.00125179924112861
-0.000612360715906125 -0.00129038084781918
-0.000605895328807114 -0.00199900073489817
0.000585382517734038 0.001928769418375
1.04714796534552e-05 0
